{"learner":{"attributes":{"scikit_learn":"{\"_estimator_type\": \"classifier\"}"},"feature_names":[],"feature_types":[],"gradient_booster":{"model":{"gbtree_model_param":{"num_parallel_tree":"1","num_trees":"300"},"iteration_indptr":[0,3,6,9,12,15,18,21,24,27,30,33,36,39,42,45,48,51,54,57,60,63,66,69,72,75,78,81,84,87,90,93,96,99,102,105,108,111,114,117,120,123,126,129,132,135,138,141,144,147,150,153,156,159,162,165,168,171,174,177,180,183,186,189,192,195,198,201,204,207,210,213,216,219,222,225,228,231,234,237,240,243,246,249,252,255,258,261,264,267,270,273,276,279,282,285,288,291,294,297,300],"tree_info":[0,1,2,0,1,2,0,1,2,0,1,2,0,1,2,0,1,2,0,1,2,0,1,2,0,1,2,0,1,2,0,1,2,0,1,2,0,1,2,0,1,2,0,1,2,0,1,2,0,1,2,0,1,2,0,1,2,0,1,2,0,1,2,0,1,2,0,1,2,0,1,2,0,1,2,0,1,2,0,1,2,0,1,2,0,1,2,0,1,2,0,1,2,0,1,2,0,1,2,0,1,2,0,1,2,0,1,2,0,1,2,0,1,2,0,1,2,0,1,2,0,1,2,0,1,2,0,1,2,0,1,2,0,1,2,0,1,2,0,1,2,0,1,2,0,1,2,0,1,2,0,1,2,0,1,2,0,1,2,0,1,2,0,1,2,0,1,2,0,1,2,0,1,2,0,1,2,0,1,2,0,1,2,0,1,2,0,1,2,0,1,2,0,1,2,0,1,2,0,1,2,0,1,2,0,1,2,0,1,2,0,1,2,0,1,2,0,1,2,0,1,2,0,1,2,0,1,2,0,1,2,0,1,2,0,1,2,0,1,2,0,1,2,0,1,2,0,1,2,0,1,2,0,1,2,0,1,2,0,1,2,0,1,2,0,1,2,0,1,2,0,1,2,0,1,2,0,1,2,0,1,2,0,1,2,0,1,2,0,1,2,0,1,2,0,1,2,0,1,2],"trees":[{"base_weights":[1.1650481E-1,4.176E-1,-2.145078E-1],"categories":[],"categories_nodes":[],"categories_segments":[],"categories_sizes":[],"default_left":[0,0,0],"id":0,"left_children":[1,-1,-1],"loss_changes":[3.7409714E1,0E0,0E0],"parents":[2147483647,0,0],"right_children":[2,-1,-1],"split_conditions":[3.3E0,4.176E-1,-2.145078E-1],"split_indices":[2,0,0],"split_type":[0,0,0],"sum_hessian":[3.3333332E1,1.2888888E1,2.0444443E1],"tree_param":{"num_deleted":"0","num_feature":"4","num_nodes":"3","size_leaf_vector":"1"}},{"base_weights":[-1.7475733E-1,-2.0880002E-1,1.7098442E-1,1.1460674E0,-6.1061954E-1,3.974026E-1,-7.663455E-9,-6.206898E-2,-2.0322584E-1],"categories":[],"categories_nodes":[],"categories_segments":[],"categories_sizes":[],"default_left":[0,0,0,0,0,0,0,0,0],"id":1,"left_children":[1,-1,3,5,7,-1,-1,-1,-1],"loss_changes":[6.3063993E0,0E0,1.7043236E1,2.0242224E0,1.9845057E-1,0E0,0E0,0E0,0E0],"parents":[2147483647,0,0,2,2,3,3,4,4],"right_children":[2,-1,4,6,8,-1,-1,-1,-1],"split_conditions":[3.3E0,-2.0880002E-1,4.9E0,1.7E0,5.1E0,3.974026E-1,-7.663455E-9,-6.206898E-2,-2.0322584E-1],"split_indices":[2,0,2,3,2,0,0,0,0],"split_type":[0,0,0,0,0,0,0,0,0],"sum_hessian":[3.3333332E1,1.2888888E1,2.0444443E1,8.888888E0,1.1555555E1,7.5555553E0,1.3333333E0,2.222222E0,9.333333E0],"tree_param":{"num_deleted":"0","num_feature":"4","num_nodes":"9","size_leaf_vector":"1"}},{"base_weights":[5.8252387E-2,-6.700508E-1,1.2396694E0,-2.1329483E-1,-2.727273E-1,6.486486E-1,4.0645164E-1,-7.663455E-9,-1.2857145E-1,2.5714284E-1,7.2E-2],"categories":[],"categories_nodes":[],"categories_segments":[],"categories_sizes":[],"default_left":[0,0,0,0,0,0,0,0,0,0,0],"id":2,"left_children":[1,3,5,-1,7,9,-1,-1,-1,-1,-1],"loss_changes":[3.0372063E1,1.620779E-1,3.6312103E-2,0E0,1.5584415E-1,1.4455605E-1,0E0,0E0,0E0,0E0,0E0],"parents":[2147483647,0,0,1,1,2,2,4,4,5,5],"right_children":[2,4,6,-1,8,10,-1,-1,-1,-1,-1],"split_conditions":[4.8E0,4.5E0,5.1E0,-2.1329483E-1,6.2E0,2.7E0,4.0645164E-1,-7.663455E-9,-1.2857145E-1,2.5714284E-1,7.2E-2],"split_indices":[2,2,2,0,0,1,0,0,0,0,0],"split_type":[0,0,0,0,0,0,0,0,0,0,0],"sum_hessian":[3.3333332E1,2.0888887E1,1.2444444E1,1.8222221E1,2.6666665E0,3.111111E0,9.333333E0,1.3333333E0,1.3333333E0,1.3333333E0,1.7777777E0],"tree_param":{"num_deleted":"0","num_feature":"4","num_nodes":"11","size_leaf_vector":"1"}},{"base_weights":[8.892443E-2,2.899751E-1,-1.9226259E-1],"categories":[],"categories_nodes":[],"categories_segments":[],"categories_sizes":[],"default_left":[0,0,0],"id":3,"left_children":[1,-1,-1],"loss_changes":[2.1903145E1,0E0,0E0],"parents":[2147483647,0,0],"right_children":[2,-1,-1],"split_conditions":[3.3E0,2.899751E-1,-1.9226259E-1],"split_indices":[2,0,0],"split_type":[0,0,0],"sum_hessian":[3.2228996E1,1.4484928E1,1.7744068E1],"tree_param":{"num_deleted":"0","num_feature":"4","num_nodes":"3","size_leaf_vector":"1"}},{"base_weights":[-1.4560248E-1,-1.8563858E-1,1.3293841E-1,8.271664E-1,-5.420522E-1,9.050742E-2,2.624589E-1,-3.466514E-3,-1.8385209E-1],"categories":[],"categories_nodes":[],"categories_segments":[],"categories_sizes":[],"default_left":[0,0,0,0,0,0,0,0,0],"id":4,"left_children":[1,-1,3,5,7,-1,-1,-1,-1],"loss_changes":[4.331058E0,0E0,1.0342614E1,6.8674088E-3,4.176321E-1,0E0,0E0,0E0,0E0],"parents":[2147483647,0,0,2,2,3,3,4,4],"right_children":[2,-1,4,6,8,-1,-1,-1,-1],"split_conditions":[3.3E0,-1.8563858E-1,1.8E0,2.4E0,5E0,9.050742E-2,2.624589E-1,-3.466514E-3,-1.8385209E-1],"split_indices":[2,0,3,1,2,0,0,0,0],"split_type":[0,0,0,0,0,0,0,0,0],"sum_hessian":[3.1235832E1,1.112123E1,2.0114603E1,9.804857E0,1.0309746E1,1.4254813E0,8.379375E0,1.3506911E0,8.959055E0],"tree_param":{"num_deleted":"0","num_feature":"4","num_nodes":"9","size_leaf_vector":"1"}},{"base_weights":[5.261588E-2,-5.9516376E-1,2.6745513E-1,-1.9171914E-1,2.690818E-3],"categories":[],"categories_nodes":[],"categories_segments":[],"categories_sizes":[],"default_left":[0,0,0,0,0],"id":5,"left_children":[1,3,-1,-1,-1],"loss_changes":[1.848856E1,5.1618576E-1,0E0,0E0,0E0],"parents":[2147483647,0,0,1,1],"right_children":[2,4,-1,-1,-1],"split_conditions":[1.7E0,4.7E0,2.6745513E-1,-1.9171914E-1,2.690818E-3],"split_indices":[3,2,0,0,0],"split_type":[0,0,0,0,0],"sum_hessian":[3.2046E1,1.82468E1,1.3799204E1,1.6956795E1,1.2900034E0],"tree_param":{"num_deleted":"0","num_feature":"4","num_nodes":"5","size_leaf_vector":"1"}},{"base_weights":[7.185559E-2,2.3241077E-1,-1.7674333E-1],"categories":[],"categories_nodes":[],"categories_segments":[],"categories_sizes":[],"default_left":[0,0,0],"id":6,"left_children":[1,-1,-1],"loss_changes":[1.432091E1,0E0,0E0],"parents":[2147483647,0,0],"right_children":[2,-1,-1],"split_conditions":[3.3E0,2.3241077E-1,-1.7674333E-1],"split_indices":[2,0,0],"split_type":[0,0,0],"sum_hessian":[2.8842966E1,1.3895618E1,1.4947347E1],"tree_param":{"num_deleted":"0","num_feature":"4","num_nodes":"3","size_leaf_vector":"1"}},{"base_weights":[-1.2222939E-1,-1.6926396E-1,1.1603273E-1,6.685683E-1,-4.8621905E-1,2.3141928E-1,-6.0129673E-3,-5.088958E-2,-1.6472751E-1],"categories":[],"categories_nodes":[],"categories_segments":[],"categories_sizes":[],"default_left":[0,0,0,0,0,0,0,0,0],"id":7,"left_children":[1,-1,3,5,7,-1,-1,-1,-1],"loss_changes":[3.1050682E0,0E0,6.841785E0,7.6847315E-1,1.0489106E-1,0E0,0E0,0E0,0E0],"parents":[2147483647,0,0,2,2,3,3,4,4],"right_children":[2,-1,4,6,8,-1,-1,-1,-1],"split_conditions":[3.3E0,-1.6926396E-1,4.9E0,1.7E0,5.1E0,2.3141928E-1,-6.0129673E-3,-5.088958E-2,-1.6472751E-1],"split_indices":[2,0,2,3,2,0,0,0,0],"split_type":[0,0,0,0,0,0,0,0,0],"sum_hessian":[2.7863916E1,9.280416E0,1.8583502E1,9.634354E0,8.949147E0,8.277992E0,1.3563614E0,2.0955083E0,6.8536386E0],"tree_param":{"num_deleted":"0","num_feature":"4","num_nodes":"9","size_leaf_vector":"1"}},{"base_weights":[4.602504E-2,-5.3847843E-1,7.029589E-1,-1.7596239E-1,8.018677E-3,3.8488805E-1,2.3011562E-1,1.9338259E-1,1.1989108E-2],"categories":[],"categories_nodes":[],"categories_segments":[],"categories_sizes":[],"default_left":[0,0,0,0,0,0,0,0,0],"id":8,"left_children":[1,3,5,-1,-1,7,-1,-1,-1],"loss_changes":[1.1921984E1,4.6321678E-1,2.1653175E-3,0E0,0E0,3.7322026E-1,0E0,0E0,0E0],"parents":[2147483647,0,0,1,1,2,2,5,5],"right_children":[2,4,6,-1,-1,8,-1,-1,-1],"split_conditions":[1.7E0,4.7E0,5.1E0,-1.7596239E-1,8.018677E-3,5.8E0,2.3011562E-1,1.9338259E-1,1.1989108E-2],"split_indices":[3,2,2,0,0,0,0,0,0],"split_type":[0,0,0,0,0,0,0,0,0],"sum_hessian":[2.9062637E1,1.547455E1,1.3588086E1,1.4227001E1,1.247549E0,3.4537125E0,1.0134374E1,1.4745603E0,1.9791522E0],"tree_param":{"num_deleted":"0","num_feature":"4","num_nodes":"9","size_leaf_vector":"1"}},{"base_weights":[5.900022E-2,1.998912E-1,-1.653491E-1],"categories":[],"categories_nodes":[],"categories_segments":[],"categories_sizes":[],"default_left":[0,0,0],"id":9,"left_children":[1,-1,-1],"loss_changes":[9.87793E0,0E0,0E0],"parents":[2147483647,0,0],"right_children":[2,-1,-1],"split_conditions":[3.3E0,1.998912E-1,-1.653491E-1],"split_indices":[2,0,0],"split_type":[0,0,0],"sum_hessian":[2.4666075E1,1.2315898E1,1.2350177E1],"tree_param":{"num_deleted":"0","num_feature":"4","num_nodes":"3","size_leaf_vector":"1"}},{"base_weights":[-1.09382436E-1,-1.5666626E-1,9.8647885E-2,5.634712E-1,-4.402395E-1,1.976143E-1,-5.5056615E-3,-4.5864005E-2,-1.5164591E-1],"categories":[],"categories_nodes":[],"categories_segments":[],"categories_sizes":[],"default_left":[0,0,0,0,0,0,0,0,0],"id":10,"left_children":[1,-1,3,5,7,-1,-1,-1,-1],"loss_changes":[2.2069974E0,0E0,4.6390157E0,5.579338E-1,8.54547E-2,0E0,0E0,0E0,0E0],"parents":[2147483647,0,0,2,2,3,3,4,4],"right_children":[2,-1,4,6,8,-1,-1,-1,-1],"split_conditions":[3.3E0,-1.5666626E-1,4.9E0,1.7E0,5.1E0,1.976143E-1,-5.5056615E-3,-4.5864005E-2,-1.5164591E-1],"split_indices":[2,0,2,3,2,0,0,0,0],"split_type":[0,0,0,0,0,0,0,0,0],"sum_hessian":[2.409791E1,7.568275E0,1.6529634E1,8.850187E0,7.6794477E0,7.491665E0,1.3585224E0,2.039631E0,5.6398168E0],"tree_param":{"num_deleted":"0","num_feature":"4","num_nodes":"9","size_leaf_vector":"1"}},{"base_weights":[4.680811E-2,-4.5612955E-1,1.9122319E-1,-1.653571E-1,6.990744E-2],"categories":[],"categories_nodes":[],"categories_segments":[],"categories_sizes":[],"default_left":[0,0,0,0,0],"id":11,"left_children":[1,3,-1,-1,-1],"loss_changes":[8.102238E0,1.0970984E0,0E0,0E0,0E0],"parents":[2147483647,0,0,1,1],"right_children":[2,4,-1,-1,-1],"split_conditions":[4.9E0,1.7E0,1.9122319E-1,-1.653571E-1,6.990744E-2],"split_indices":[2,3,0,0,0],"split_type":[0,0,0,0,0],"sum_hessian":[2.5298124E1,1.3786058E1,1.1512066E1,1.229087E1,1.4951886E0],"tree_param":{"num_deleted":"0","num_feature":"4","num_nodes":"5","size_leaf_vector":"1"}},{"base_weights":[5.019008E-2,1.789339E-1,-1.5603888E-1],"categories":[],"categories_nodes":[],"categories_segments":[],"categories_sizes":[],"default_left":[0,0,0],"id":12,"left_children":[1,-1,-1],"loss_changes":[6.9968095E0,0E0,0E0],"parents":[2147483647,0,0],"right_children":[2,-1,-1],"split_conditions":[3.3E0,1.789339E-1,-1.5603888E-1],"split_indices":[2,0,0],"split_type":[0,0,0],"sum_hessian":[2.0462944E1,1.0428573E1,1.0034372E1],"tree_param":{"num_deleted":"0","num_feature":"4","num_nodes":"3","size_leaf_vector":"1"}},{"base_weights":[-9.805021E-2,-1.4623159E-1,8.872038E-2,4.9032986E-1,-3.927736E-1,2.0000845E-1,1.8537271E-1,1.27453245E-2,-1.4851207E-1,1.3000765E-1,-5.3521197E-2],"categories":[],"categories_nodes":[],"categories_segments":[],"categories_sizes":[],"default_left":[0,0,0,0,0,0,0,0,0,0,0],"id":13,"left_children":[1,-1,3,5,7,9,-1,-1,-1,-1,-1],"loss_changes":[1.5977592E0,0E0,3.149619E0,2.0170188E-1,3.5529852E-1,4.4462836E-1,0E0,0E0,0E0,0E0,0E0],"parents":[2147483647,0,0,2,2,3,3,4,4,5,5],"right_children":[2,-1,4,6,8,10,-1,-1,-1,-1,-1],"split_conditions":[3.3E0,-1.4623159E-1,1.8E0,2.7E0,6E0,1.2E0,1.8537271E-1,1.27453245E-2,-1.4851207E-1,1.3000765E-1,-5.3521197E-2],"split_indices":[2,0,3,1,0,3,0,0,0,0,0],"split_type":[0,0,0,0,0,0,0,0,0,0,0],"sum_hessian":[2.0374846E1,6.082963E0,1.42918825E1,7.7823496E0,6.5095334E0,3.1597304E0,4.622619E0,1.3496869E0,5.1598463E0,1.8646686E0,1.295062E0],"tree_param":{"num_deleted":"0","num_feature":"4","num_nodes":"11","size_leaf_vector":"1"}},{"base_weights":[4.5281947E-2,-4.1841346E-1,5.5593765E-1,2.9477114E-2,-1.6098036E-1,4.8188176E-2,1.8423265E-1,-9.6483074E-2,1.1293986E-1],"categories":[],"categories_nodes":[],"categories_segments":[],"categories_sizes":[],"default_left":[0,0,0,0,0,0,0,0,0],"id":14,"left_children":[1,3,5,7,-1,-1,-1,-1,-1],"loss_changes":[5.558976E0,6.700816E-1,1.5740132E-1,5.509213E-1,0E0,0E0,0E0,0E0,0E0],"parents":[2147483647,0,0,1,1,2,2,3,3],"right_children":[2,4,6,8,-1,-1,-1,-1,-1],"split_conditions":[1.8E0,2.7E0,6E0,1.2E0,-1.6098036E-1,4.8188176E-2,1.8423265E-1,-9.6483074E-2,1.1293986E-1],"split_indices":[3,1,0,3,0,0,0,0,0],"split_type":[0,0,0,0,0,0,0,0,0],"sum_hessian":[2.1494167E1,1.1359725E1,1.0134441E1,2.5284328E0,8.831292E0,1.7825E0,8.351941E0,1.2931498E0,1.235283E0],"tree_param":{"num_deleted":"0","num_feature":"4","num_nodes":"9","size_leaf_vector":"1"}},{"base_weights":[4.0362675E-2,1.6399924E-1,-1.4845788E-1],"categories":[],"categories_nodes":[],"categories_segments":[],"categories_sizes":[],"default_left":[0,0,0],"id":15,"left_children":[1,-1,-1],"loss_changes":[5.0762024E0,0E0,0E0],"parents":[2147483647,0,0],"right_children":[2,-1,-1],"split_conditions":[3.3E0,1.6399924E-1,-1.4845788E-1],"split_indices":[2,0,0],"split_type":[0,0,0],"sum_hessian":[1.6734198E1,8.588449E0,8.145748E0],"tree_param":{"num_deleted":"0","num_feature":"4","num_nodes":"3","size_leaf_vector":"1"}},{"base_weights":[-8.4902614E-2,-1.3697718E-1,8.4303595E-2,4.5010063E-1,-3.614161E-1,1.5982431E-1,6.137806E-3,-3.1319637E-2,-1.3496171E-1],"categories":[],"categories_nodes":[],"categories_segments":[],"categories_sizes":[],"default_left":[0,0,0,0,0,0,0,0,0],"id":16,"left_children":[1,-1,3,5,7,-1,-1,-1,-1],"loss_changes":[1.1833215E0,0E0,2.3397596E0,2.6533246E-1,1.0248166E-1,0E0,0E0,0E0,0E0],"parents":[2147483647,0,0,2,2,3,3,4,4],"right_children":[2,-1,4,6,8,-1,-1,-1,-1],"split_conditions":[3.3E0,-1.3697718E-1,4.9E0,1.7E0,1.9E0,1.5982431E-1,6.137806E-3,-3.1319637E-2,-1.3496171E-1],"split_indices":[2,0,2,3,3,0,0,0,0],"split_type":[0,0,0,0,0,0,0,0,0],"sum_hessian":[1.7203121E1,4.850284E0,1.2352838E1,6.7793083E0,5.5735292E0,5.4843416E0,1.2949666E0,1.9852997E0,3.5882297E0],"tree_param":{"num_deleted":"0","num_feature":"4","num_nodes":"9","size_leaf_vector":"1"}},{"base_weights":[4.3306235E-2,-3.907541E-1,1.5119465E-1,-1.4775582E-1,4.0409993E-2],"categories":[],"categories_nodes":[],"categories_segments":[],"categories_sizes":[],"default_left":[0,0,0,0,0],"id":17,"left_children":[1,3,-1,-1,-1],"loss_changes":[4.0279465E0,6.2393844E-1,0E0,0E0,0E0],"parents":[2147483647,0,0,1,1],"right_children":[2,4,-1,-1,-1],"split_conditions":[4.9E0,1.7E0,1.5119465E-1,-1.4775582E-1,4.0409993E-2],"split_indices":[2,3,0,0,0],"split_type":[0,0,0,0,0],"sum_hessian":[1.815879E1,9.427627E0,8.731165E0,7.9505196E0,1.477107E0],"tree_param":{"num_deleted":"0","num_feature":"4","num_nodes":"5","size_leaf_vector":"1"}},{"base_weights":[3.345028E-2,1.5249193E-1,-1.4141893E-1],"categories":[],"categories_nodes":[],"categories_segments":[],"categories_sizes":[],"default_left":[0,0,0],"id":18,"left_children":[1,-1,-1],"loss_changes":[3.7244177E0,0E0,0E0],"parents":[2147483647,0,0],"right_children":[2,-1,-1],"split_conditions":[3.3E0,1.5249193E-1,-1.4141893E-1],"split_indices":[2,0,0],"split_type":[0,0,0],"sum_hessian":[1.3536398E1,6.971855E0,6.5645423E0],"tree_param":{"num_deleted":"0","num_feature":"4","num_nodes":"3","size_leaf_vector":"1"}},{"base_weights":[-7.547455E-2,-1.2828463E-1,7.883115E-2,4.0188682E-1,-3.1606606E-1,1.4627255E-1,6.284865E-3,-1.8681373E-2,-1.252397E-1],"categories":[],"categories_nodes":[],"categories_segments":[],"categories_sizes":[],"default_left":[0,0,0,0,0,0,0,0,0],"id":19,"left_children":[1,-1,3,5,7,-1,-1,-1,-1],"loss_changes":[8.7172544E-1,0E0,1.6027769E0,2.1184576E-1,1.22362494E-1,0E0,0E0,0E0,0E0],"parents":[2147483647,0,0,2,2,3,3,4,4],"right_children":[2,-1,4,6,8,-1,-1,-1,-1],"split_conditions":[3.3E0,-1.2828463E-1,4.9E0,1.7E0,1.9E0,1.4627255E-1,6.284865E-3,-1.8681373E-2,-1.252397E-1],"split_indices":[2,0,2,3,3,0,0,0,0],"split_type":[0,0,0,0,0,0,0,0,0],"sum_hessian":[1.442247E1,3.8546212E0,1.0567849E1,5.802922E0,4.764927E0,4.5087776E0,1.2941439E0,1.8210663E0,2.9438608E0],"tree_param":{"num_deleted":"0","num_feature":"4","num_nodes":"9","size_leaf_vector":"1"}},{"base_weights":[4.1723277E-2,-3.5728773E-1,1.3452889E-1,4.690355E-2,-1.501713E-1,-8.659898E-2,1.08329274E-1],"categories":[],"categories_nodes":[],"categories_segments":[],"categories_sizes":[],"default_left":[0,0,0,0,0,0,0],"id":20,"left_children":[1,3,-1,5,-1,-1,-1],"loss_changes":[2.7963197E0,5.3058326E-1,0E0,4.4225085E-1,0E0,0E0,0E0],"parents":[2147483647,0,0,1,1,3,3],"right_children":[2,4,-1,6,-1,-1,-1],"split_conditions":[4.9E0,2.9E0,1.3452889E-1,4.1E0,-1.501713E-1,-8.659898E-2,1.08329274E-1],"split_indices":[2,1,0,2,0,0,0],"split_type":[0,0,0,0,0,0,0],"sum_hessian":[1.5244123E1,7.756194E0,7.4879293E0,2.2059693E0,5.550225E0,1.1059965E0,1.099973E0],"tree_param":{"num_deleted":"0","num_feature":"4","num_nodes":"7","size_leaf_vector":"1"}},{"base_weights":[2.595799E-2,1.4275078E-1,-1.3483435E-1],"categories":[],"categories_nodes":[],"categories_segments":[],"categories_sizes":[],"default_left":[0,0,0],"id":21,"left_children":[1,-1,-1],"loss_changes":[2.7602582E0,0E0,0E0],"parents":[2147483647,0,0],"right_children":[2,-1,-1],"split_conditions":[3.3E0,1.4275078E-1,-1.3483435E-1],"split_indices":[2,0,0],"split_type":[0,0,0],"sum_hessian":[1.090602E1,5.6029897E0,5.3030305E0],"tree_param":{"num_deleted":"0","num_feature":"4","num_nodes":"3","size_leaf_vector":"1"}},{"base_weights":[-6.4428486E-2,-1.1983934E-1,7.668051E-2,3.674424E-1,-2.7698696E-1,7.697205E-2,1.5527405E-1,-1.2696685E-1,3.516025E-2,9.027216E-2,-5.504911E-2],"categories":[],"categories_nodes":[],"categories_segments":[],"categories_sizes":[],"default_left":[0,0,0,0,0,0,0,0,0,0,0],"id":22,"left_children":[1,-1,3,5,7,9,-1,-1,-1,-1,-1],"loss_changes":[6.5385026E-1,0E0,1.1418976E0,2.209875E-1,3.4553927E-1,2.4260448E-1,0E0,0E0,0E0,0E0,0E0],"parents":[2147483647,0,0,2,2,3,3,4,4,5,5],"right_children":[2,-1,4,6,8,10,-1,-1,-1,-1,-1],"split_conditions":[3.3E0,-1.1983934E-1,1.8E0,2.7E0,3.2E0,1.2E0,1.5527405E-1,-1.2696685E-1,3.516025E-2,9.027216E-2,-5.504911E-2],"split_indices":[2,0,3,1,1,3,0,0,0,0,0],"split_type":[0,0,0,0,0,0,0,0,0,0,0],"sum_hessian":[1.2182403E1,3.0677445E0,9.114658E0,4.9808145E0,4.1338434E0,2.212665E0,2.7681494E0,2.9615204E0,1.1723232E0,1.1062922E0,1.1063726E0],"tree_param":{"num_deleted":"0","num_feature":"4","num_nodes":"11","size_leaf_vector":"1"}},{"base_weights":[3.8960483E-2,-3.340959E-1,4.0640917E-1,2.4867E-2,-1.46182E-1,1.03683565E-2,1.4739808E-1],"categories":[],"categories_nodes":[],"categories_segments":[],"categories_sizes":[],"default_left":[0,0,0,0,0,0,0],"id":23,"left_children":[1,3,5,-1,-1,-1,-1],"loss_changes":[2.0366597E0,5.1495475E-1,2.1785975E-1,0E0,0E0,0E0,0E0],"parents":[2147483647,0,0,1,1,2,2],"right_children":[2,4,6,-1,-1,-1,-1],"split_conditions":[1.8E0,2.7E0,6E0,2.4867E-2,-1.46182E-1,1.03683565E-2,1.4739808E-1],"split_indices":[3,1,0,0,0,0,0],"split_type":[0,0,0,0,0,0,0],"sum_hessian":[1.2867033E1,6.4298377E0,6.4371953E0,1.8506864E0,4.579151E0,1.4583209E0,4.978874E0],"tree_param":{"num_deleted":"0","num_feature":"4","num_nodes":"7","size_leaf_vector":"1"}},{"base_weights":[1.7685726E-2,1.3408951E-1,-1.286377E-1],"categories":[],"categories_nodes":[],"categories_segments":[],"categories_sizes":[],"default_left":[0,0,0],"id":24,"left_children":[1,-1,-1],"loss_changes":[2.074593E0,0E0,0E0],"parents":[2147483647,0,0],"right_children":[2,-1,-1],"split_conditions":[3.3E0,1.3408951E-1,-1.286377E-1],"split_indices":[2,0,0],"split_type":[0,0,0],"sum_hessian":[8.824171E0,4.498177E0,4.325994E0],"tree_param":{"num_deleted":"0","num_feature":"4","num_nodes":"3","size_leaf_vector":"1"}},{"base_weights":[-5.2640013E-2,-1.0645611E-1,8.7537766E-2,1.14994824E-1,-2.5094956E-1,-2.8435038E-3,-1.083704E-1],"categories":[],"categories_nodes":[],"categories_segments":[],"categories_sizes":[],"default_left":[0,0,0,0,0,0,0],"id":25,"left_children":[1,-1,3,-1,5,-1,-1],"loss_changes":[5.1589644E-1,0E0,9.592356E-1,0E0,1.1972371E-1,0E0,0E0],"parents":[2147483647,0,0,2,2,4,4],"right_children":[2,-1,4,-1,6,-1,-1],"split_conditions":[5.5E0,-1.0645611E-1,4.9E0,1.14994824E-1,5.1E0,-2.8435038E-3,-1.083704E-1],"split_indices":[0,0,2,0,2,0,0],"split_type":[0,0,0,0,0,0,0],"sum_hessian":[1.0444562E1,2.82424E0,7.620322E0,3.9960446E0,3.6242774E0,1.4767812E0,2.1474962E0],"tree_param":{"num_deleted":"0","num_feature":"4","num_nodes":"7","size_leaf_vector":"1"}},{"base_weights":[3.5753325E-2,-3.0815238E-1,3.7133148E-1,1.4451472E-2,-1.3982284E-1,3.9112147E-2,1.3107093E-1],"categories":[],"categories_nodes":[],"categories_segments":[],"categories_sizes":[],"default_left":[0,0,0,0,0,0,0],"id":26,"left_children":[1,3,5,-1,-1,-1,-1],"loss_changes":[1.4981916E0,3.8642782E-1,4.6088696E-2,0E0,0E0,0E0,0E0],"parents":[2147483647,0,0,1,1,2,2],"right_children":[2,4,6,-1,-1,-1,-1],"split_conditions":[4.9E0,2.9E0,5.1E0,1.4451472E-2,-1.3982284E-1,3.9112147E-2,1.3107093E-1],"split_indices":[2,1,2,0,0,0,0],"split_type":[0,0,0,0,0,0,0],"sum_hessian":[1.0990278E1,5.468155E0,5.5221233E0,1.8926746E0,3.5754802E0,1.8205109E0,3.7016125E0],"tree_param":{"num_deleted":"0","num_feature":"4","num_nodes":"7","size_leaf_vector":"1"}},{"base_weights":[1.2355835E-2,1.2650566E-1,-1.2261931E-1],"categories":[],"categories_nodes":[],"categories_segments":[],"categories_sizes":[],"default_left":[0,0,0],"id":27,"left_children":[1,-1,-1],"loss_changes":[1.5927947E0,0E0,0E0],"parents":[2147483647,0,0],"right_children":[2,-1,-1],"split_conditions":[3.3E0,1.2650566E-1,-1.2261931E-1],"split_indices":[2,0,0],"split_type":[0,0,0],"sum_hessian":[7.240957E0,3.671017E0,3.5699399E0],"tree_param":{"num_deleted":"0","num_feature":"4","num_nodes":"3","size_leaf_vector":"1"}},{"base_weights":[-4.572347E-2,-1.04292504E-1,7.209397E-2,2.42363E-1,-1.0334257E-1,1.6403994E-2,1.3603963E-1,1.029779E-1,-9.7323224E-2],"categories":[],"categories_nodes":[],"categories_segments":[],"categories_sizes":[],"default_left":[0,0,0,0,0,0,0,0,0],"id":28,"left_children":[1,-1,3,5,-1,7,-1,-1,-1],"loss_changes":[3.8720593E-1,0E0,6.6165274E-1,2.9656887E-1,0E0,5.698504E-1,0E0,0E0,0E0],"parents":[2147483647,0,0,2,2,3,3,5,5],"right_children":[2,-1,4,6,-1,8,-1,-1,-1],"split_conditions":[3.3E0,-1.04292504E-1,1.9E0,3E0,-1.0334257E-1,4.4E0,1.3603963E-1,1.029779E-1,-9.7323224E-2],"split_indices":[2,0,3,1,0,2,0,0,0],"split_type":[0,0,0,0,0,0,0,0,0],"sum_hessian":[9.180785E0,2.02945E0,7.1513357E0,5.373256E0,1.7780792E0,3.115841E0,2.2574155E0,1.5868301E0,1.5290109E0],"tree_param":{"num_deleted":"0","num_feature":"4","num_nodes":"9","size_leaf_vector":"1"}},{"base_weights":[3.453371E-2,-2.8217128E-1,3.4290072E-1,2.0584125E-2,-1.3508555E-1,1.3459787E-1,1.0221464E-3],"categories":[],"categories_nodes":[],"categories_segments":[],"categories_sizes":[],"default_left":[0,0,0,0,0,0,0],"id":29,"left_children":[1,3,5,-1,-1,-1,-1],"loss_changes":[1.1252351E0,3.6962247E-1,2.0625728E-1,0E0,0E0,0E0,0E0],"parents":[2147483647,0,0,1,1,2,2],"right_children":[2,4,6,-1,-1,-1,-1],"split_conditions":[1.8E0,2.7E0,3.2E0,2.0584125E-2,-1.3508555E-1,1.3459787E-1,1.0221464E-3],"split_indices":[3,1,1,0,0,0,0],"split_type":[0,0,0,0,0,0,0],"sum_hessian":[9.531066E0,4.743873E0,4.7871933E0,1.7286817E0,3.0151913E0,3.404935E0,1.3822583E0],"tree_param":{"num_deleted":"0","num_feature":"4","num_nodes":"7","size_leaf_vector":"1"}},{"base_weights":[5.034152E-3,1.18682094E-1,-1.1641872E-1],"categories":[],"categories_nodes":[],"categories_segments":[],"categories_sizes":[],"default_left":[0,0,0],"id":30,"left_children":[1,-1,-1],"loss_changes":[1.2172259E0,0E0,0E0],"parents":[2147483647,0,0],"right_children":[2,-1,-1],"split_conditions":[3.3E0,1.18682094E-1,-1.1641872E-1],"split_indices":[2,0,0],"split_type":[0,0,0],"sum_hessian":[5.9281974E0,2.9704409E0,2.9577568E0],"tree_param":{"num_deleted":"0","num_feature":"4","num_nodes":"3","size_leaf_vector":"1"}},{"base_weights":[-3.8274977E-2,-9.061305E-2,8.0829486E-2,3.2861993E-1,-2.03482E-1,1.1373727E-1,2.8754301E-2,9.008261E-4,-9.563533E-2],"categories":[],"categories_nodes":[],"categories_segments":[],"categories_sizes":[],"default_left":[0,0,0,0,0,0,0,0,0],"id":31,"left_children":[1,-1,3,5,7,-1,-1,-1,-1],"loss_changes":[3.081572E-1,0E0,5.6079566E-1,1.2197077E-2,9.339297E-2,0E0,0E0,0E0,0E0],"parents":[2147483647,0,0,2,2,3,3,4,4],"right_children":[2,-1,4,6,8,-1,-1,-1,-1],"split_conditions":[5.5E0,-9.061305E-2,4.9E0,6.2E0,1.9E0,1.1373727E-1,2.8754301E-2,9.008261E-4,-9.563533E-2],"split_indices":[0,0,2,0,3,0,0,0,0],"split_type":[0,0,0,0,0,0,0,0,0],"sum_hessian":[8.031802E0,2.0207343E0,6.0110683E0,3.1285498E0,2.8825185E0,2.0541327E0,1.0744171E0,1.381848E0,1.5006704E0],"tree_param":{"num_deleted":"0","num_feature":"4","num_nodes":"9","size_leaf_vector":"1"}},{"base_weights":[3.3393167E-2,-2.578068E-1,3.1382594E-1,1.2876923E-2,-1.26041E-1,2.76922E-2,1.1613423E-1],"categories":[],"categories_nodes":[],"categories_segments":[],"categories_sizes":[],"default_left":[0,0,0,0,0,0,0],"id":32,"left_children":[1,3,5,-1,-1,-1,-1],"loss_changes":[8.4099567E-1,2.6774508E-1,4.8565686E-2,0E0,0E0,0E0,0E0],"parents":[2147483647,0,0,1,1,2,2],"right_children":[2,4,6,-1,-1,-1,-1],"split_conditions":[4.9E0,2.9E0,5.1E0,1.2876923E-2,-1.26041E-1,2.76922E-2,1.1613423E-1],"split_indices":[2,1,2,0,0,0,0],"split_type":[0,0,0,0,0,0,0],"sum_hessian":[8.307745E0,4.115212E0,4.192533E0,1.7004898E0,2.4147222E0,1.6039605E0,2.5885725E0],"tree_param":{"num_deleted":"0","num_feature":"4","num_nodes":"7","size_leaf_vector":"1"}},{"base_weights":[3.5632617E-4,1.117598E-1,-1.1063074E-1],"categories":[],"categories_nodes":[],"categories_segments":[],"categories_sizes":[],"default_left":[0,0,0],"id":33,"left_children":[1,-1,-1],"loss_changes":[9.5638096E-1,0E0,0E0],"parents":[2147483647,0,0],"right_children":[2,-1,-1],"split_conditions":[3.3E0,1.117598E-1,-1.1063074E-1],"split_indices":[2,0,0],"split_type":[0,0,0],"sum_hessian":[4.9615946E0,2.4659915E0,2.4956033E0],"tree_param":{"num_deleted":"0","num_feature":"4","num_nodes":"3","size_leaf_vector":"1"}},{"base_weights":[-3.1027894E-2,-8.211365E-2,7.726867E-2,3.0629927E-1,-1.893192E-1,3.6327537E-2,1.1888595E-1,-9.947136E-2,2.1036297E-2],"categories":[],"categories_nodes":[],"categories_segments":[],"categories_sizes":[],"default_left":[0,0,0,0,0,0,0,0,0],"id":34,"left_children":[1,-1,3,5,7,-1,-1,-1,-1],"loss_changes":[2.3737267E-1,0E0,4.5293024E-1,1.6366392E-2,1.5637511E-1,0E0,0E0,0E0,0E0],"parents":[2147483647,0,0,2,2,3,3,4,4],"right_children":[2,-1,4,6,8,-1,-1,-1,-1],"split_conditions":[5.5E0,-8.211365E-2,1.8E0,6.2E0,3.1E0,3.6327537E-2,1.1888595E-1,-9.947136E-2,2.1036297E-2],"split_indices":[0,0,3,0,1,0,0,0,0],"split_type":[0,0,0,0,0,0,0,0,0],"sum_hessian":[7.22709E0,1.7586528E0,5.468437E0,2.8612888E0,2.6071482E0,1.7026434E0,1.1586454E0,1.5043061E0,1.1028421E0],"tree_param":{"num_deleted":"0","num_feature":"4","num_nodes":"9","size_leaf_vector":"1"}},{"base_weights":[3.0234413E-2,-2.4115892E-1,2.9552725E-1,1.8314365E-2,-1.2369321E-1,1.2059804E-1,-4.05139E-3],"categories":[],"categories_nodes":[],"categories_segments":[],"categories_sizes":[],"default_left":[0,0,0,0,0,0,0],"id":35,"left_children":[1,3,5,-1,-1,-1,-1],"loss_changes":[6.74098E-1,2.6772434E-1,1.5951684E-1,0E0,0E0,0E0,0E0],"parents":[2147483647,0,0,1,1,2,2],"right_children":[2,4,6,-1,-1,-1,-1],"split_conditions":[1.8E0,2.7E0,3.2E0,1.8314365E-2,-1.2369321E-1,1.2059804E-1,-4.05139E-3],"split_indices":[3,1,1,0,0,0,0],"split_type":[0,0,0,0,0,0,0],"sum_hessian":[7.372774E0,3.6894524E0,3.6833217E0,1.5665929E0,2.1228595E0,2.5157812E0,1.1675404E0],"tree_param":{"num_deleted":"0","num_feature":"4","num_nodes":"7","size_leaf_vector":"1"}},{"base_weights":[-4.6740514E-3,1.0487349E-1,-1.0491129E-1],"categories":[],"categories_nodes":[],"categories_segments":[],"categories_sizes":[],"default_left":[0,0,0],"id":36,"left_children":[1,-1,-1],"loss_changes":[7.555693E-1,0E0,0E0],"parents":[2147483647,0,0],"right_children":[2,-1,-1],"split_conditions":[3.3E0,1.0487349E-1,-1.0491129E-1],"split_indices":[2,0,0],"split_type":[0,0,0],"sum_hessian":[4.1814756E0,2.0566614E0,2.1248143E0],"tree_param":{"num_deleted":"0","num_feature":"4","num_nodes":"3","size_leaf_vector":"1"}},{"base_weights":[-2.226764E-2,6.928236E-2,-8.3874315E-2,-7.393301E-2,2.2239158E-1,-1.4108535E-2,1.222916E-1],"categories":[],"categories_nodes":[],"categories_segments":[],"categories_sizes":[],"default_left":[0,0,0,0,0,0,0],"id":37,"left_children":[1,3,-1,-1,5,-1,-1],"loss_changes":[1.9705977E-1,3.624901E-1,0E0,0E0,2.5933152E-1,0E0,0E0],"parents":[2147483647,0,0,1,1,4,4],"right_children":[2,4,-1,-1,6,-1,-1],"split_conditions":[5.1E0,5.5E0,-8.3874315E-2,-7.393301E-2,2.9E0,-1.4108535E-2,1.222916E-1],"split_indices":[2,0,0,0,1,0,0],"split_type":[0,0,0,0,0,0,0],"sum_hessian":[6.5429564E0,5.3649116E0,1.1780444E0,1.5529629E0,3.8119488E0,1.8571192E0,1.9548296E0],"tree_param":{"num_deleted":"0","num_feature":"4","num_nodes":"7","size_leaf_vector":"1"}},{"base_weights":[2.526402E-2,-1.0078993E-1,1.9835351E-1,1.2006687E-1,-3.773785E-2,-1.2459561E-1,9.328923E-2],"categories":[],"categories_nodes":[],"categories_segments":[],"categories_sizes":[],"default_left":[0,0,0,0,0,0,0],"id":38,"left_children":[1,-1,3,-1,5,-1,-1],"loss_changes":[5.422647E-1,0E0,2.901703E-1,0E0,5.997246E-1,0E0,0E0],"parents":[2147483647,0,0,2,2,4,4],"right_children":[2,-1,4,-1,6,-1,-1],"split_conditions":[4.5E0,-1.0078993E-1,3E0,1.2006687E-1,5.1E0,-1.2459561E-1,9.328923E-2],"split_indices":[2,0,1,0,2,0,0],"split_type":[0,0,0,0,0,0,0],"sum_hessian":[6.6069264E0,1.835441E0,4.7714853E0,2.1974003E0,2.5740852E0,1.1441435E0,1.4299417E0],"tree_param":{"num_deleted":"0","num_feature":"4","num_nodes":"7","size_leaf_vector":"1"}},{"base_weights":[-2.9583483E-3,9.87324E-2,-9.870238E-2],"categories":[],"categories_nodes":[],"categories_segments":[],"categories_sizes":[],"default_left":[0,0,0],"id":39,"left_children":[1,-1,-1],"loss_changes":[6.0090786E-1,0E0,0E0],"parents":[2147483647,0,0],"right_children":[2,-1,-1],"split_conditions":[3.3E0,9.87324E-2,-9.870238E-2],"split_indices":[2,0,0],"split_type":[0,0,0],"sum_hessian":[3.5499985E0,1.7541242E0,1.7958742E0],"tree_param":{"num_deleted":"0","num_feature":"4","num_nodes":"3","size_leaf_vector":"1"}},{"base_weights":[-1.9512339E-2,-7.771753E-2,6.758981E-2,2.4296743E-1,-4.8043177E-2,9.90532E-2,4.529006E-3],"categories":[],"categories_nodes":[],"categories_segments":[],"categories_sizes":[],"default_left":[0,0,0,0,0,0,0],"id":40,"left_children":[1,-1,3,5,-1,-1,-1],"loss_changes":[1.6033006E-1,0E0,2.7107015E-1,6.816962E-2,0E0,0E0,0E0],"parents":[2147483647,0,0,2,2,3,3],"right_children":[2,-1,4,6,-1,-1,-1],"split_conditions":[3.3E0,-7.771753E-2,4.9E0,1.7E0,-4.8043177E-2,9.90532E-2,4.529006E-3],"split_indices":[2,0,2,3,0,0,0],"split_type":[0,0,0,0,0,0,0],"sum_hessian":[5.84498E0,1.0321624E0,4.812817E0,2.6811626E0,2.1316545E0,1.614355E0,1.0668076E0],"tree_param":{"num_deleted":"0","num_feature":"4","num_nodes":"7","size_leaf_vector":"1"}},{"base_weights":[2.1602266E-2,-9.5463075E-2,1.8646818E-1,1.11975275E-1,-3.9868146E-2,-1.1172747E-1,8.601499E-2],"categories":[],"categories_nodes":[],"categories_segments":[],"categories_sizes":[],"default_left":[0,0,0,0,0,0,0],"id":41,"left_children":[1,-1,3,-1,5,-1,-1],"loss_changes":[4.4062066E-1,0E0,2.352655E-1,0E0,4.608916E-1,0E0,0E0],"parents":[2147483647,0,0,2,2,4,4],"right_children":[2,-1,4,-1,6,-1,-1],"split_conditions":[4.5E0,-9.5463075E-2,3E0,1.11975275E-1,5.1E0,-1.1172747E-1,8.601499E-2],"split_indices":[2,0,1,0,2,0,0],"split_type":[0,0,0,0,0,0,0],"sum_hessian":[5.805797E0,1.5927643E0,4.2130327E0,1.9525796E0,2.260453E0,1.0504414E0,1.2100117E0],"tree_param":{"num_deleted":"0","num_feature":"4","num_nodes":"7","size_leaf_vector":"1"}},{"base_weights":[-4.1922703E-3,9.189699E-2,-9.234528E-2],"categories":[],"categories_nodes":[],"categories_segments":[],"categories_sizes":[],"default_left":[0,0,0],"id":42,"left_children":[1,-1,-1],"loss_changes":[4.7078988E-1,0E0,0E0],"parents":[2147483647,0,0],"right_children":[2,-1,-1],"split_conditions":[3.3E0,9.189699E-2,-9.234528E-2],"split_indices":[2,0,0],"split_type":[0,0,0],"sum_hessian":[2.993388E0,1.475509E0,1.5178788E0],"tree_param":{"num_deleted":"0","num_feature":"4","num_nodes":"3","size_leaf_vector":"1"}},{"base_weights":[-1.5148352E-2,-6.267433E-2,7.240515E-2,7.484794E-2,-4.141544E-2],"categories":[],"categories_nodes":[],"categories_segments":[],"categories_sizes":[],"default_left":[0,0,0,0,0],"id":43,"left_children":[1,-1,3,-1,-1],"loss_changes":[1.20056175E-1,0E0,2.2089292E-1,0E0,0E0],"parents":[2147483647,0,0,2,2],"right_children":[2,-1,4,-1,-1],"split_conditions":[5.5E0,-6.267433E-2,4.9E0,7.484794E-2,-4.141544E-2],"split_indices":[0,0,2,0,0],"split_type":[0,0,0,0,0],"sum_hessian":[5.185106E0,1.1823326E0,4.0027733E0,2.0729837E0,1.9297895E0],"tree_param":{"num_deleted":"0","num_feature":"4","num_nodes":"5","size_leaf_vector":"1"}},{"base_weights":[1.8013924E-2,-8.825033E-2,1.6597962E-1,1.0494261E-1,-1.621789E-2],"categories":[],"categories_nodes":[],"categories_segments":[],"categories_sizes":[],"default_left":[0,0,0,0,0],"id":44,"left_children":[1,-1,3,-1,-1],"loss_changes":[3.3200848E-1,0E0,2.1300715E-1,0E0,0E0],"parents":[2147483647,0,0,2,2],"right_children":[2,-1,4,-1,-1],"split_conditions":[4.5E0,-8.825033E-2,3E0,1.0494261E-1,-1.621789E-2],"split_indices":[2,0,1,0,0],"split_type":[0,0,0,0,0],"sum_hessian":[5.130532E0,1.332053E0,3.7984788E0,1.7482059E0,2.050273E0],"tree_param":{"num_deleted":"0","num_feature":"4","num_nodes":"5","size_leaf_vector":"1"}},{"base_weights":[-6.5521775E-3,8.628899E-2,-8.734925E-2],"categories":[],"categories_nodes":[],"categories_segments":[],"categories_sizes":[],"default_left":[0,0,0],"id":45,"left_children":[1,-1,-1],"loss_changes":[3.8643998E-1,0E0,0E0],"parents":[2147483647,0,0],"right_children":[2,-1,-1],"split_conditions":[3.3E0,8.628899E-2,-8.734925E-2],"split_indices":[2,0,0],"split_type":[0,0,0],"sum_hessian":[2.6151977E0,1.2807639E0,1.3344337E0],"tree_param":{"num_deleted":"0","num_feature":"4","num_nodes":"3","size_leaf_vector":"1"}},{"base_weights":[-1.0286036E-2,-5.625559E-2,6.872291E-2,7.086517E-2,-3.9441444E-2],"categories":[],"categories_nodes":[],"categories_segments":[],"categories_sizes":[],"default_left":[0,0,0,0,0],"id":46,"left_children":[1,-1,3,-1,-1],"loss_changes":[9.3843736E-2,0E0,1.8967919E-1,0E0,0E0],"parents":[2147483647,0,0,2,2],"right_children":[2,-1,4,-1,-1],"split_conditions":[5.5E0,-5.625559E-2,1.8E0,7.086517E-2,-3.9441444E-2],"split_indices":[0,0,3,0,0],"split_type":[0,0,0,0,0],"sum_hessian":[4.781413E0,1.0508239E0,3.7305894E0,1.9332119E0,1.7973773E0],"tree_param":{"num_deleted":"0","num_feature":"4","num_nodes":"5","size_leaf_vector":"1"}},{"base_weights":[1.4552536E-2,-1.9127828E-1,2.1712726E-1,1.3206168E-2,-9.90187E-2,9.035083E-2,6.3835867E-3],"categories":[],"categories_nodes":[],"categories_segments":[],"categories_sizes":[],"default_left":[0,0,0,0,0,0,0],"id":47,"left_children":[1,3,5,-1,-1,-1,-1],"loss_changes":[2.7978802E-1,1.24446236E-1,4.8701182E-2,0E0,0E0,0E0,0E0],"parents":[2147483647,0,0,1,1,2,2],"right_children":[2,4,6,-1,-1,-1,-1],"split_conditions":[1.8E0,2.7E0,3.1E0,1.3206168E-2,-9.90187E-2,9.035083E-2,6.3835867E-3],"split_indices":[3,1,1,0,0,0,0],"split_type":[0,0,0,0,0,0,0],"sum_hessian":[4.714112E0,2.365924E0,2.3481882E0,1.1310756E0,1.2348483E0,1.2668107E0,1.0813774E0],"tree_param":{"num_deleted":"0","num_feature":"4","num_nodes":"7","size_leaf_vector":"1"}},{"base_weights":[-7.52302E-3,8.101636E-2,-8.242162E-2],"categories":[],"categories_nodes":[],"categories_segments":[],"categories_sizes":[],"default_left":[0,0,0],"id":48,"left_children":[1,-1,-1],"loss_changes":[3.1872252E-1,0E0,0E0],"parents":[2147483647,0,0],"right_children":[2,-1,-1],"split_conditions":[3.3E0,8.101636E-2,-8.242162E-2],"split_indices":[2,0,0],"split_type":[0,0,0],"sum_hessian":[2.2967224E0,1.1213088E0,1.1754136E0],"tree_param":{"num_deleted":"0","num_feature":"4","num_nodes":"3","size_leaf_vector":"1"}},{"base_weights":[-7.813501E-3,7.879463E-2,-3.7099004E-2,-2.5836984E-2,6.14171E-2],"categories":[],"categories_nodes":[],"categories_segments":[],"categories_sizes":[],"default_left":[0,0,0,0,0],"id":49,"left_children":[1,3,-1,-1,-1],"loss_changes":[6.450984E-2,9.518165E-2,0E0,0E0,0E0],"parents":[2147483647,0,0,1,1],"right_children":[2,4,-1,-1,-1],"split_conditions":[4.9E0,5.6E0,-3.7099004E-2,-2.5836984E-2,6.14171E-2],"split_indices":[2,0,0,0,0],"split_type":[0,0,0,0,0],"sum_hessian":[4.4582777E0,2.7341278E0,1.72415E0,1.3206666E0,1.4134612E0],"tree_param":{"num_deleted":"0","num_feature":"4","num_nodes":"5","size_leaf_vector":"1"}},{"base_weights":[1.2573388E-2,-1.8541692E-1,2.028551E-1,6.08727E-3,-9.1510236E-2,6.908895E-3,8.357146E-2],"categories":[],"categories_nodes":[],"categories_segments":[],"categories_sizes":[],"default_left":[0,0,0,0,0,0,0],"id":50,"left_children":[1,3,5,-1,-1,-1,-1],"loss_changes":[2.3971173E-1,8.373377E-2,3.7332073E-2,0E0,0E0,0E0,0E0],"parents":[2147483647,0,0,1,1,2,2],"right_children":[2,4,6,-1,-1,-1,-1],"split_conditions":[4.9E0,2.9E0,5.1E0,6.08727E-3,-9.1510236E-2,6.908895E-3,8.357146E-2],"split_indices":[2,1,2,0,0,0,0],"split_type":[0,0,0,0,0,0,0],"sum_hessian":[4.3644238E0,2.1514165E0,2.2130072E0,1.096358E0,1.0550586E0,1.0421269E0,1.1708803E0],"tree_param":{"num_deleted":"0","num_feature":"4","num_nodes":"7","size_leaf_vector":"1"}},{"base_weights":[-6.8848785E-3],"categories":[],"categories_nodes":[],"categories_segments":[],"categories_sizes":[],"default_left":[0],"id":51,"left_children":[-1],"loss_changes":[0E0],"parents":[2147483647],"right_children":[-1],"split_conditions":[-2.0654637E-3],"split_indices":[0],"split_type":[0],"sum_hessian":[2.0440154E0],"tree_param":{"num_deleted":"0","num_feature":"4","num_nodes":"1","size_leaf_vector":"1"}},{"base_weights":[-4.187214E-3,7.312316E-2,-3.342968E-2,-2.1834783E-2,5.4377776E-2],"categories":[],"categories_nodes":[],"categories_segments":[],"categories_sizes":[],"default_left":[0,0,0,0,0],"id":52,"left_children":[1,3,-1,-1,-1],"loss_changes":[5.1424507E-2,7.057396E-2,0E0,0E0,0E0],"parents":[2147483647,0,0,1,1],"right_children":[2,4,-1,-1,-1],"split_conditions":[1.8E0,5.6E0,-3.342968E-2,-2.1834783E-2,5.4377776E-2],"split_indices":[3,0,0,0,0],"split_type":[0,0,0,0,0],"sum_hessian":[4.219566E0,2.6368744E0,1.5826917E0,1.2615825E0,1.3752918E0],"tree_param":{"num_deleted":"0","num_feature":"4","num_nodes":"5","size_leaf_vector":"1"}},{"base_weights":[8.41606E-3,-1.2003931E-1,7.8301854E-2,4.2034313E-2,-1.0942467E-1],"categories":[],"categories_nodes":[],"categories_segments":[],"categories_sizes":[],"default_left":[0,0,0,0,0],"id":53,"left_children":[1,3,-1,-1,-1],"loss_changes":[1.9639005E-1,3.0939326E-1,0E0,0E0,0E0],"parents":[2147483647,0,0,1,1],"right_children":[2,4,-1,-1,-1],"split_conditions":[5.1E0,2.9E0,7.8301854E-2,4.2034313E-2,-1.0942467E-1],"split_indices":[2,1,0,0,0],"split_type":[0,0,0,0,0],"sum_hessian":[4.0871053E0,3.0571501E0,1.0299553E0,1.6889902E0,1.3681599E0],"tree_param":{"num_deleted":"0","num_feature":"4","num_nodes":"5","size_leaf_vector":"1"}},{"base_weights":[-6.2933797E-3],"categories":[],"categories_nodes":[],"categories_segments":[],"categories_sizes":[],"default_left":[0],"id":54,"left_children":[-1],"loss_changes":[0E0],"parents":[2147483647],"right_children":[-1],"split_conditions":[-1.888014E-3],"split_indices":[0],"split_type":[0],"sum_hessian":[1.9675915E0],"tree_param":{"num_deleted":"0","num_feature":"4","num_nodes":"1","size_leaf_vector":"1"}},{"base_weights":[-3.3221764E-3,7.060141E-2,-3.1646203E-2,-1.8402562E-2,5.1295485E-2],"categories":[],"categories_nodes":[],"categories_segments":[],"categories_sizes":[],"default_left":[0,0,0,0,0],"id":55,"left_children":[1,3,-1,-1,-1],"loss_changes":[4.563915E-2,5.7283018E-2,0E0,0E0,0E0],"parents":[2147483647,0,0,1,1],"right_children":[2,4,-1,-1,-1],"split_conditions":[4.9E0,5.6E0,-3.1646203E-2,-1.8402562E-2,5.1295485E-2],"split_indices":[2,0,0,0,0],"split_type":[0,0,0,0,0],"sum_hessian":[4.0568714E0,2.5330105E0,1.5238607E0,1.2625067E0,1.2705038E0],"tree_param":{"num_deleted":"0","num_feature":"4","num_nodes":"5","size_leaf_vector":"1"}},{"base_weights":[7.285888E-3,-4.981667E-2,5.407458E-2],"categories":[],"categories_nodes":[],"categories_segments":[],"categories_sizes":[],"default_left":[0,0,0],"id":56,"left_children":[1,-1,-1],"loss_changes":[1.7591123E-1,0E0,0E0],"parents":[2147483647,0,0],"right_children":[2,-1,-1],"split_conditions":[4.9E0,-4.981667E-2,5.407458E-2],"split_indices":[2,0,0],"split_type":[0,0,0],"sum_hessian":[3.8689833E0,1.9523213E0,1.916662E0],"tree_param":{"num_deleted":"0","num_feature":"4","num_nodes":"3","size_leaf_vector":"1"}},{"base_weights":[-4.3806327E-3],"categories":[],"categories_nodes":[],"categories_segments":[],"categories_sizes":[],"default_left":[0],"id":57,"left_children":[-1],"loss_changes":[0E0],"parents":[2147483647],"right_children":[-1],"split_conditions":[-1.3141899E-3],"split_indices":[0],"split_type":[0],"sum_hessian":[1.9203365E0],"tree_param":{"num_deleted":"0","num_feature":"4","num_nodes":"1","size_leaf_vector":"1"}},{"base_weights":[-2.7163716E-3,6.554276E-2,-3.0514032E-2,-1.9080056E-2,4.9248334E-2],"categories":[],"categories_nodes":[],"categories_segments":[],"categories_sizes":[],"default_left":[0,0,0,0,0],"id":58,"left_children":[1,3,-1,-1,-1],"loss_changes":[4.008591E-2,5.5466358E-2,0E0,0E0,0E0],"parents":[2147483647,0,0,1,1],"right_children":[2,4,-1,-1,-1],"split_conditions":[1.8E0,5.6E0,-3.0514032E-2,-1.9080056E-2,4.9248334E-2],"split_indices":[3,0,0,0,0],"split_type":[0,0,0,0,0],"sum_hessian":[3.9455519E0,2.5353463E0,1.4102057E0,1.2515287E0,1.2838175E0],"tree_param":{"num_deleted":"0","num_feature":"4","num_nodes":"5","size_leaf_vector":"1"}},{"base_weights":[5.5407537E-3,-4.746224E-2,5.3564336E-2],"categories":[],"categories_nodes":[],"categories_segments":[],"categories_sizes":[],"default_left":[0,0,0],"id":59,"left_children":[1,-1,-1],"loss_changes":[1.6233985E-1,0E0,0E0],"parents":[2147483647,0,0],"right_children":[2,-1,-1],"split_conditions":[1.8E0,-4.746224E-2,5.3564336E-2],"split_indices":[3,0,0],"split_type":[0,0,0],"sum_hessian":[3.7332928E0,1.9619159E0,1.7713768E0],"tree_param":{"num_deleted":"0","num_feature":"4","num_nodes":"3","size_leaf_vector":"1"}},{"base_weights":[-2.936272E-3],"categories":[],"categories_nodes":[],"categories_segments":[],"categories_sizes":[],"default_left":[0],"id":60,"left_children":[-1],"loss_changes":[0E0],"parents":[2147483647],"right_children":[-1],"split_conditions":[-8.808816E-4],"split_indices":[0],"split_type":[0],"sum_hessian":[1.8774571E0],"tree_param":{"num_deleted":"0","num_feature":"4","num_nodes":"1","size_leaf_vector":"1"}},{"base_weights":[-2.7484293E-3,-2.4802333E-2,6.494117E-2,-8.694184E-4,3.0929886E-2],"categories":[],"categories_nodes":[],"categories_segments":[],"categories_sizes":[],"default_left":[0,0,0,0,0],"id":61,"left_children":[1,-1,3,-1,-1],"loss_changes":[3.1603083E-2,0E0,8.545072E-3,0E0,0E0],"parents":[2147483647,0,0,2,2],"right_children":[2,-1,4,-1,-1],"split_conditions":[2.9E0,-2.4802333E-2,6E0,-8.694184E-4,3.0929886E-2],"split_indices":[1,0,0,0,0],"split_type":[0,0,0,0,0],"sum_hessian":[3.8490458E0,1.6634796E0,2.1855662E0,1.1194414E0,1.0661249E0],"tree_param":{"num_deleted":"0","num_feature":"4","num_nodes":"5","size_leaf_vector":"1"}},{"base_weights":[4.7192113E-3,-4.4206392E-2,4.8247244E-2],"categories":[],"categories_nodes":[],"categories_segments":[],"categories_sizes":[],"default_left":[0,0,0],"id":62,"left_children":[1,-1,-1],"loss_changes":[1.3323365E-1,0E0,0E0],"parents":[2147483647,0,0],"right_children":[2,-1,-1],"split_conditions":[4.9E0,-4.4206392E-2,4.8247244E-2],"split_indices":[2,0,0],"split_type":[0,0,0],"sum_hessian":[3.6140637E0,1.8590621E0,1.7550018E0],"tree_param":{"num_deleted":"0","num_feature":"4","num_nodes":"3","size_leaf_vector":"1"}},{"base_weights":[-2.6029649E-3],"categories":[],"categories_nodes":[],"categories_segments":[],"categories_sizes":[],"default_left":[0],"id":63,"left_children":[-1],"loss_changes":[0E0],"parents":[2147483647],"right_children":[-1],"split_conditions":[-7.808895E-4],"split_indices":[0],"split_type":[0],"sum_hessian":[1.8490511E0],"tree_param":{"num_deleted":"0","num_feature":"4","num_nodes":"1","size_leaf_vector":"1"}},{"base_weights":[-1.8932011E-3,-2.3782123E-2,6.324277E-2,-1.9186594E-3,3.1222E-2],"categories":[],"categories_nodes":[],"categories_segments":[],"categories_sizes":[],"default_left":[0,0,0,0,0],"id":64,"left_children":[1,-1,3,-1,-1],"loss_changes":[2.9186578E-2,0E0,9.651436E-3,0E0,0E0],"parents":[2147483647,0,0,2,2],"right_children":[2,-1,4,-1,-1],"split_conditions":[2.9E0,-2.3782123E-2,6E0,-1.9186594E-3,3.1222E-2],"split_indices":[1,0,0,0,0],"split_type":[0,0,0,0,0],"sum_hessian":[3.796004E0,1.6357306E0,2.1602733E0,1.110179E0,1.0500944E0],"tree_param":{"num_deleted":"0","num_feature":"4","num_nodes":"5","size_leaf_vector":"1"}},{"base_weights":[3.6395083E-3,-4.1690923E-2,4.722231E-2],"categories":[],"categories_nodes":[],"categories_segments":[],"categories_sizes":[],"default_left":[0,0,0],"id":65,"left_children":[1,-1,-1],"loss_changes":[1.2126334E-1,0E0,0E0],"parents":[2147483647,0,0],"right_children":[2,-1,-1],"split_conditions":[1.8E0,-4.1690923E-2,4.722231E-2],"split_indices":[3,0,0],"split_type":[0,0,0],"sum_hessian":[3.5323322E0,1.8825954E0,1.6497369E0],"tree_param":{"num_deleted":"0","num_feature":"4","num_nodes":"3","size_leaf_vector":"1"}},{"base_weights":[-2.4111052E-3],"categories":[],"categories_nodes":[],"categories_segments":[],"categories_sizes":[],"default_left":[0],"id":66,"left_children":[-1],"loss_changes":[0E0],"parents":[2147483647],"right_children":[-1],"split_conditions":[-7.233316E-4],"split_indices":[0],"split_type":[0],"sum_hessian":[1.822544E0],"tree_param":{"num_deleted":"0","num_feature":"4","num_nodes":"1","size_leaf_vector":"1"}},{"base_weights":[-1.38636E-3,-2.3328181E-2,1.9125003E-2],"categories":[],"categories_nodes":[],"categories_segments":[],"categories_sizes":[],"default_left":[0,0,0],"id":67,"left_children":[1,-1,-1],"loss_changes":[2.8575154E-2,0E0,0E0],"parents":[2147483647,0,0],"right_children":[2,-1,-1],"split_conditions":[5.9E0,-2.3328181E-2,1.9125003E-2],"split_indices":[0,0,0],"split_type":[0,0,0],"sum_hessian":[3.7475674E0,1.6357692E0,2.1117983E0],"tree_param":{"num_deleted":"0","num_feature":"4","num_nodes":"3","size_leaf_vector":"1"}},{"base_weights":[3.0023674E-3,-4.185623E-2,4.565656E-2],"categories":[],"categories_nodes":[],"categories_segments":[],"categories_sizes":[],"default_left":[0,0,0],"id":68,"left_children":[1,-1,-1],"loss_changes":[1.16032586E-1,0E0,0E0],"parents":[2147483647,0,0],"right_children":[2,-1,-1],"split_conditions":[4.9E0,-4.185623E-2,4.565656E-2],"split_indices":[2,0,0],"split_type":[0,0,0],"sum_hessian":[3.4585166E0,1.8018907E0,1.6566259E0],"tree_param":{"num_deleted":"0","num_feature":"4","num_nodes":"3","size_leaf_vector":"1"}},{"base_weights":[-4.6632816E-3],"categories":[],"categories_nodes":[],"categories_segments":[],"categories_sizes":[],"default_left":[0],"id":69,"left_children":[-1],"loss_changes":[0E0],"parents":[2147483647],"right_children":[-1],"split_conditions":[-1.3989846E-3],"split_indices":[0],"split_type":[0],"sum_hessian":[1.785346E0],"tree_param":{"num_deleted":"0","num_feature":"4","num_nodes":"1","size_leaf_vector":"1"}},{"base_weights":[-1.8314489E-3,-2.3420889E-2,6.279076E-2,-1.1302381E-3,3.0246526E-2],"categories":[],"categories_nodes":[],"categories_segments":[],"categories_sizes":[],"default_left":[0,0,0,0,0],"id":70,"left_children":[1,-1,3,-1,-1],"loss_changes":[2.8066337E-2,0E0,8.224269E-3,0E0,0E0],"parents":[2147483647,0,0,2,2],"right_children":[2,-1,4,-1,-1],"split_conditions":[2.9E0,-2.3420889E-2,6E0,-1.1302381E-3,3.0246526E-2],"split_indices":[1,0,0,0,0],"split_type":[0,0,0,0,0],"sum_hessian":[3.7018049E0,1.6028025E0,2.0990024E0,1.0908453E0,1.008157E0],"tree_param":{"num_deleted":"0","num_feature":"4","num_nodes":"5","size_leaf_vector":"1"}},{"base_weights":[4.910488E-3,4.413004E-2,-4.2545956E-2],"categories":[],"categories_nodes":[],"categories_segments":[],"categories_sizes":[],"default_left":[0,0,0],"id":71,"left_children":[1,-1,-1],"loss_changes":[1.12635605E-1,0E0,0E0],"parents":[2147483647,0,0],"right_children":[2,-1,-1],"split_conditions":[3E0,4.413004E-2,-4.2545956E-2],"split_indices":[1,0,0],"split_type":[0,0,0],"sum_hessian":[3.3987706E0,1.7248131E0,1.6739573E0],"tree_param":{"num_deleted":"0","num_feature":"4","num_nodes":"3","size_leaf_vector":"1"}},{"base_weights":[-5.9712892E-3],"categories":[],"categories_nodes":[],"categories_segments":[],"categories_sizes":[],"default_left":[0],"id":72,"left_children":[-1],"loss_changes":[0E0],"parents":[2147483647],"right_children":[-1],"split_conditions":[-1.7913869E-3],"split_indices":[0],"split_type":[0],"sum_hessian":[1.7771336E0],"tree_param":{"num_deleted":"0","num_feature":"4","num_nodes":"1","size_leaf_vector":"1"}},{"base_weights":[1.7240233E-4,5.315739E-2,-2.337776E-2,-1.7425017E-2,4.333589E-2],"categories":[],"categories_nodes":[],"categories_segments":[],"categories_sizes":[],"default_left":[0,0,0,0,0],"id":73,"left_children":[1,3,-1,-1,-1],"loss_changes":[2.354016E-2,4.2791646E-2,0E0,0E0,0E0],"parents":[2147483647,0,0,1,1],"right_children":[2,4,-1,-1,-1],"split_conditions":[4.9E0,5.6E0,-2.337776E-2,-1.7425017E-2,4.333589E-2],"split_indices":[2,0,0,0,0],"split_type":[0,0,0,0,0],"sum_hessian":[3.68769E0,2.387361E0,1.3003289E0,1.2401116E0,1.1472495E0],"tree_param":{"num_deleted":"0","num_feature":"4","num_nodes":"5","size_leaf_vector":"1"}},{"base_weights":[3.6039928E-3,-4.0659215E-2,4.4815432E-2],"categories":[],"categories_nodes":[],"categories_segments":[],"categories_sizes":[],"default_left":[0,0,0],"id":74,"left_children":[1,-1,-1],"loss_changes":[1.0902332E-1,0E0,0E0],"parents":[2147483647,0,0],"right_children":[2,-1,-1],"split_conditions":[4.9E0,-4.0659215E-2,4.4815432E-2],"split_indices":[2,0,0],"split_type":[0,0,0],"sum_hessian":[3.3768854E0,1.7638038E0,1.6130816E0],"tree_param":{"num_deleted":"0","num_feature":"4","num_nodes":"3","size_leaf_vector":"1"}},{"base_weights":[-4.6196915E-3],"categories":[],"categories_nodes":[],"categories_segments":[],"categories_sizes":[],"default_left":[0],"id":75,"left_children":[-1],"loss_changes":[0E0],"parents":[2147483647],"right_children":[-1],"split_conditions":[-1.3859075E-3],"split_indices":[0],"split_type":[0],"sum_hessian":[1.7454895E0],"tree_param":{"num_deleted":"0","num_feature":"4","num_nodes":"1","size_leaf_vector":"1"}},{"base_weights":[7.283719E-5,5.1512398E-2,-2.3458911E-2,-1.7775903E-2,4.2669553E-2],"categories":[],"categories_nodes":[],"categories_segments":[],"categories_sizes":[],"default_left":[0,0,0,0,0],"id":76,"left_children":[1,3,-1,-1,-1],"loss_changes":[2.2613812E-2,4.2476498E-2,0E0,0E0,0E0],"parents":[2147483647,0,0,1,1],"right_children":[2,4,-1,-1,-1],"split_conditions":[1.8E0,5.6E0,-2.3458911E-2,-1.7775903E-2,4.2669553E-2],"split_indices":[3,0,0,0,0],"split_type":[0,0,0,0,0],"sum_hessian":[3.6162724E0,2.3884244E0,1.2278482E0,1.2315713E0,1.156853E0],"tree_param":{"num_deleted":"0","num_feature":"4","num_nodes":"5","size_leaf_vector":"1"}},{"base_weights":[2.8782086E-3,-4.009153E-2,4.574485E-2],"categories":[],"categories_nodes":[],"categories_segments":[],"categories_sizes":[],"default_left":[0,0,0],"id":77,"left_children":[1,-1,-1],"loss_changes":[1.0799351E-1,0E0,0E0],"parents":[2147483647,0,0],"right_children":[2,-1,-1],"split_conditions":[1.8E0,-4.009153E-2,4.574485E-2],"split_indices":[3,0,0],"split_type":[0,0,0],"sum_hessian":[3.2899535E0,1.7760248E0,1.5139287E0],"tree_param":{"num_deleted":"0","num_feature":"4","num_nodes":"3","size_leaf_vector":"1"}},{"base_weights":[-3.5792254E-3],"categories":[],"categories_nodes":[],"categories_segments":[],"categories_sizes":[],"default_left":[0],"id":78,"left_children":[-1],"loss_changes":[0E0],"parents":[2147483647],"right_children":[-1],"split_conditions":[-1.0737677E-3],"split_indices":[0],"split_type":[0],"sum_hessian":[1.7160925E0],"tree_param":{"num_deleted":"0","num_feature":"4","num_nodes":"1","size_leaf_vector":"1"}},{"base_weights":[-3.8856728E-4,-2.112948E-2,1.8231913E-2],"categories":[],"categories_nodes":[],"categories_segments":[],"categories_sizes":[],"default_left":[0,0,0],"id":79,"left_children":[1,-1,-1],"loss_changes":[2.3775076E-2,0E0,0E0],"parents":[2147483647,0,0],"right_children":[2,-1,-1],"split_conditions":[5.9E0,-2.112948E-2,1.8231913E-2],"split_indices":[0,0,0],"split_type":[0,0,0],"sum_hessian":[3.5506513E0,1.5844986E0,1.9661527E0],"tree_param":{"num_deleted":"0","num_feature":"4","num_nodes":"3","size_leaf_vector":"1"}},{"base_weights":[2.7296739E-3,4.107917E-2,-4.076548E-2],"categories":[],"categories_nodes":[],"categories_segments":[],"categories_sizes":[],"default_left":[0,0,0],"id":80,"left_children":[1,-1,-1],"loss_changes":[9.691055E-2,0E0,0E0],"parents":[2147483647,0,0],"right_children":[2,-1,-1],"split_conditions":[3E0,4.107917E-2,-4.076548E-2],"split_indices":[1,0,0],"split_type":[0,0,0],"sum_hessian":[3.2093806E0,1.6368244E0,1.5725564E0],"tree_param":{"num_deleted":"0","num_feature":"4","num_nodes":"3","size_leaf_vector":"1"}},{"base_weights":[-6.995949E-3],"categories":[],"categories_nodes":[],"categories_segments":[],"categories_sizes":[],"default_left":[0],"id":81,"left_children":[-1],"loss_changes":[0E0],"parents":[2147483647],"right_children":[-1],"split_conditions":[-2.0987848E-3],"split_indices":[0],"split_type":[0],"sum_hessian":[1.6982082E0],"tree_param":{"num_deleted":"0","num_feature":"4","num_nodes":"1","size_leaf_vector":"1"}},{"base_weights":[3.524816E-4,4.8031047E-2,-2.133086E-2,-1.4686096E-2,3.8423985E-2],"categories":[],"categories_nodes":[],"categories_segments":[],"categories_sizes":[],"default_left":[0,0,0,0,0],"id":82,"left_children":[1,3,-1,-1,-1],"loss_changes":[1.8876491E-2,3.2035824E-2,0E0,0E0,0E0],"parents":[2147483647,0,0,1,1],"right_children":[2,4,-1,-1,-1],"split_conditions":[4.9E0,5.6E0,-2.133086E-2,-1.4686096E-2,3.8423985E-2],"split_indices":[2,0,0,0,0],"split_type":[0,0,0,0,0],"sum_hessian":[3.53826E0,2.318835E0,1.2194248E0,1.2241488E0,1.0946863E0],"tree_param":{"num_deleted":"0","num_feature":"4","num_nodes":"5","size_leaf_vector":"1"}},{"base_weights":[4.1128495E-3,-3.7610702E-2,4.2469926E-2],"categories":[],"categories_nodes":[],"categories_segments":[],"categories_sizes":[],"default_left":[0,0,0],"id":83,"left_children":[1,-1,-1],"loss_changes":[9.250935E-2,0E0,0E0],"parents":[2147483647,0,0],"right_children":[2,-1,-1],"split_conditions":[4.9E0,-3.7610702E-2,4.2469926E-2],"split_indices":[2,0,0],"split_type":[0,0,0],"sum_hessian":[3.2006068E0,1.693366E0,1.5072407E0],"tree_param":{"num_deleted":"0","num_feature":"4","num_nodes":"3","size_leaf_vector":"1"}},{"base_weights":[-5.496464E-3],"categories":[],"categories_nodes":[],"categories_segments":[],"categories_sizes":[],"default_left":[0],"id":84,"left_children":[-1],"loss_changes":[0E0],"parents":[2147483647],"right_children":[-1],"split_conditions":[-1.6489393E-3],"split_indices":[0],"split_type":[0],"sum_hessian":[1.6723497E0],"tree_param":{"num_deleted":"0","num_feature":"4","num_nodes":"1","size_leaf_vector":"1"}},{"base_weights":[1.4483309E-4,-1.8428942E-2,1.6305417E-2],"categories":[],"categories_nodes":[],"categories_segments":[],"categories_sizes":[],"default_left":[0,0,0],"id":85,"left_children":[1,-1,-1],"loss_changes":[1.829079E-2,0E0,0E0],"parents":[2147483647,0,0],"right_children":[2,-1,-1],"split_conditions":[5.9E0,-1.8428942E-2,1.6305417E-2],"split_indices":[0,0,0],"split_type":[0,0,0],"sum_hessian":[3.4796636E0,1.5667253E0,1.9129385E0],"tree_param":{"num_deleted":"0","num_feature":"4","num_nodes":"3","size_leaf_vector":"1"}},{"base_weights":[3.4015083E-3,-3.7049457E-2,4.33244E-2],"categories":[],"categories_nodes":[],"categories_segments":[],"categories_sizes":[],"default_left":[0,0,0],"id":86,"left_children":[1,-1,-1],"loss_changes":[9.169001E-2,0E0,0E0],"parents":[2147483647,0,0],"right_children":[2,-1,-1],"split_conditions":[1.8E0,-3.7049457E-2,4.33244E-2],"split_indices":[3,0,0],"split_type":[0,0,0],"sum_hessian":[3.127243E0,1.7113675E0,1.4158754E0],"tree_param":{"num_deleted":"0","num_feature":"4","num_nodes":"3","size_leaf_vector":"1"}},{"base_weights":[-6.8989955E-3],"categories":[],"categories_nodes":[],"categories_segments":[],"categories_sizes":[],"default_left":[0],"id":87,"left_children":[-1],"loss_changes":[0E0],"parents":[2147483647],"right_children":[-1],"split_conditions":[-2.0696986E-3],"split_indices":[0],"split_type":[0],"sum_hessian":[1.644418E0],"tree_param":{"num_deleted":"0","num_feature":"4","num_nodes":"1","size_leaf_vector":"1"}},{"base_weights":[-7.310546E-4,-1.8194128E-2,1.5709389E-2],"categories":[],"categories_nodes":[],"categories_segments":[],"categories_sizes":[],"default_left":[0,0,0],"id":88,"left_children":[1,-1,-1],"loss_changes":[1.7316176E-2,0E0,0E0],"parents":[2147483647,0,0],"right_children":[2,-1,-1],"split_conditions":[5.9E0,-1.8194128E-2,1.5709389E-2],"split_indices":[0,0,0],"split_type":[0,0,0],"sum_hessian":[3.4448771E0,1.5516682E0,1.8932089E0],"tree_param":{"num_deleted":"0","num_feature":"4","num_nodes":"3","size_leaf_vector":"1"}},{"base_weights":[5.266354E-3,3.9222762E-2,-3.8127884E-2],"categories":[],"categories_nodes":[],"categories_segments":[],"categories_sizes":[],"default_left":[0,0,0],"id":89,"left_children":[1,-1,-1],"loss_changes":[8.4396854E-2,0E0,0E0],"parents":[2147483647,0,0],"right_children":[2,-1,-1],"split_conditions":[3E0,3.9222762E-2,-3.8127884E-2],"split_indices":[1,0,0],"split_type":[0,0,0],"sum_hessian":[3.0812047E0,1.5880004E0,1.4932042E0],"tree_param":{"num_deleted":"0","num_feature":"4","num_nodes":"3","size_leaf_vector":"1"}},{"base_weights":[-9.492134E-3],"categories":[],"categories_nodes":[],"categories_segments":[],"categories_sizes":[],"default_left":[0],"id":90,"left_children":[-1],"loss_changes":[0E0],"parents":[2147483647],"right_children":[-1],"split_conditions":[-2.8476403E-3],"split_indices":[0],"split_type":[0],"sum_hessian":[1.6296947E0],"tree_param":{"num_deleted":"0","num_feature":"4","num_nodes":"1","size_leaf_vector":"1"}},{"base_weights":[1.1102329E-4,4.586157E-2,-2.1181421E-2,-1.224411E-2,3.4720536E-2],"categories":[],"categories_nodes":[],"categories_segments":[],"categories_sizes":[],"default_left":[0,0,0,0,0],"id":91,"left_children":[1,3,-1,-1,-1],"loss_changes":[1.758439E-2,2.4701256E-2,0E0,0E0,0E0],"parents":[2147483647,0,0,1,1],"right_children":[2,4,-1,-1,-1],"split_conditions":[1.8E0,5.6E0,-2.1181421E-2,-1.224411E-2,3.4720536E-2],"split_indices":[3,0,0,0,0],"split_type":[0,0,0,0,0],"sum_hessian":[3.434338E0,2.2986562E0,1.1356817E0,1.2116038E0,1.0870526E0],"tree_param":{"num_deleted":"0","num_feature":"4","num_nodes":"5","size_leaf_vector":"1"}},{"base_weights":[6.006848E-3,-3.5217416E-2,4.2665996E-2],"categories":[],"categories_nodes":[],"categories_segments":[],"categories_sizes":[],"default_left":[0,0,0],"id":92,"left_children":[1,-1,-1],"loss_changes":[8.5163884E-2,0E0,0E0],"parents":[2147483647,0,0],"right_children":[2,-1,-1],"split_conditions":[1.8E0,-3.5217416E-2,4.2665996E-2],"split_indices":[3,0,0],"split_type":[0,0,0],"sum_hessian":[3.073454E0,1.6850824E0,1.3883716E0],"tree_param":{"num_deleted":"0","num_feature":"4","num_nodes":"3","size_leaf_vector":"1"}},{"base_weights":[-7.7602817E-3],"categories":[],"categories_nodes":[],"categories_segments":[],"categories_sizes":[],"default_left":[0],"id":93,"left_children":[-1],"loss_changes":[0E0],"parents":[2147483647],"right_children":[-1],"split_conditions":[-2.3280845E-3],"split_indices":[0],"split_type":[0],"sum_hessian":[1.6079794E0],"tree_param":{"num_deleted":"0","num_feature":"4","num_nodes":"1","size_leaf_vector":"1"}},{"base_weights":[-3.8214077E-4,4.4342477E-2,-2.0489108E-2,-1.2842795E-2,3.501426E-2],"categories":[],"categories_nodes":[],"categories_segments":[],"categories_sizes":[],"default_left":[0,0,0,0,0],"id":94,"left_children":[1,3,-1,-1,-1],"loss_changes":[1.6341554E-2,2.5488928E-2,0E0,0E0,0E0],"parents":[2147483647,0,0,1,1],"right_children":[2,4,-1,-1,-1],"split_conditions":[4.9E0,5.6E0,-2.0489108E-2,-1.2842795E-2,3.501426E-2],"split_indices":[2,0,0,0,0],"split_type":[0,0,0,0,0],"sum_hessian":[3.3829598E0,2.2489953E0,1.1339645E0,1.2056284E0,1.043367E0],"tree_param":{"num_deleted":"0","num_feature":"4","num_nodes":"5","size_leaf_vector":"1"}},{"base_weights":[5.4674153E-3,-3.7619658E-2,3.8454782E-2],"categories":[],"categories_nodes":[],"categories_segments":[],"categories_sizes":[],"default_left":[0,0,0],"id":95,"left_children":[1,-1,-1],"loss_changes":[8.043618E-2,0E0,0E0],"parents":[2147483647,0,0],"right_children":[2,-1,-1],"split_conditions":[6E0,-3.7619658E-2,3.8454782E-2],"split_indices":[0,0,0],"split_type":[0,0,0],"sum_hessian":[3.0077906E0,1.4449712E0,1.5628194E0],"tree_param":{"num_deleted":"0","num_feature":"4","num_nodes":"3","size_leaf_vector":"1"}},{"base_weights":[-6.7562927E-3],"categories":[],"categories_nodes":[],"categories_segments":[],"categories_sizes":[],"default_left":[0],"id":96,"left_children":[-1],"loss_changes":[0E0],"parents":[2147483647],"right_children":[-1],"split_conditions":[-2.0268878E-3],"split_indices":[0],"split_type":[0],"sum_hessian":[1.5888594E0],"tree_param":{"num_deleted":"0","num_feature":"4","num_nodes":"1","size_leaf_vector":"1"}},{"base_weights":[4.2302182E-4,-1.7329166E-2,1.5832016E-2],"categories":[],"categories_nodes":[],"categories_segments":[],"categories_sizes":[],"default_left":[0,0,0],"id":97,"left_children":[1,-1,-1],"loss_changes":[1.6260793E-2,0E0,0E0],"parents":[2147483647,0,0],"right_children":[2,-1,-1],"split_conditions":[5.9E0,-1.7329166E-2,1.5832016E-2],"split_indices":[0,0,0],"split_type":[0,0,0],"sum_hessian":[3.3374717E0,1.5316492E0,1.8058224E0],"tree_param":{"num_deleted":"0","num_feature":"4","num_nodes":"3","size_leaf_vector":"1"}},{"base_weights":[3.962591E-3,3.8173184E-2,-3.576664E-2],"categories":[],"categories_nodes":[],"categories_segments":[],"categories_sizes":[],"default_left":[0,0,0],"id":98,"left_children":[1,-1,-1],"loss_changes":[7.517273E-2,0E0,0E0],"parents":[2147483647,0,0],"right_children":[2,-1,-1],"split_conditions":[2.9E0,3.8173184E-2,-3.576664E-2],"split_indices":[1,0,0],"split_type":[0,0,0],"sum_hessian":[2.9510705E0,1.458487E0,1.4925835E0],"tree_param":{"num_deleted":"0","num_feature":"4","num_nodes":"3","size_leaf_vector":"1"}},{"base_weights":[-9.36819E-3],"categories":[],"categories_nodes":[],"categories_segments":[],"categories_sizes":[],"default_left":[0],"id":99,"left_children":[-1],"loss_changes":[0E0],"parents":[2147483647],"right_children":[-1],"split_conditions":[-2.810457E-3],"split_indices":[0],"split_type":[0],"sum_hessian":[1.5758166E0],"tree_param":{"num_deleted":"0","num_feature":"4","num_nodes":"1","size_leaf_vector":"1"}},{"base_weights":[9.206772E-4,4.161852E-2,-1.90566E-2,-1.0550328E-2,3.1101529E-2],"categories":[],"categories_nodes":[],"categories_segments":[],"categories_sizes":[],"default_left":[0,0,0,0,0],"id":100,"left_children":[1,3,-1,-1,-1],"loss_changes":[1.3991863E-2,1.9161308E-2,0E0,0E0,0E0],"parents":[2147483647,0,0,1,1],"right_children":[2,4,-1,-1,-1],"split_conditions":[1.8E0,5.6E0,-1.90566E-2,-1.0550328E-2,3.1101529E-2],"split_indices":[3,0,0,0,0],"split_type":[0,0,0,0,0],"sum_hessian":[3.3269408E0,2.2562294E0,1.0707115E0,1.2020485E0,1.0541809E0],"tree_param":{"num_deleted":"0","num_feature":"4","num_nodes":"5","size_leaf_vector":"1"}},{"base_weights":[5.10801E-3,-3.2992702E-2,4.035026E-2],"categories":[],"categories_nodes":[],"categories_segments":[],"categories_sizes":[],"default_left":[0,0,0],"id":101,"left_children":[1,-1,-1],"loss_changes":[7.3523365E-2,0E0,0E0],"parents":[2147483647,0,0],"right_children":[2,-1,-1],"split_conditions":[1.8E0,-3.2992702E-2,4.035026E-2],"split_indices":[3,0,0],"split_type":[0,0,0],"sum_hessian":[2.9440956E0,1.6376299E0,1.3064656E0],"tree_param":{"num_deleted":"0","num_feature":"4","num_nodes":"3","size_leaf_vector":"1"}},{"base_weights":[-7.6628956E-3],"categories":[],"categories_nodes":[],"categories_segments":[],"categories_sizes":[],"default_left":[0],"id":102,"left_children":[-1],"loss_changes":[0E0],"parents":[2147483647],"right_children":[-1],"split_conditions":[-2.2988687E-3],"split_indices":[0],"split_type":[0],"sum_hessian":[1.5576586E0],"tree_param":{"num_deleted":"0","num_feature":"4","num_nodes":"1","size_leaf_vector":"1"}},{"base_weights":[2.197369E-4,4.267407E-2,-1.9502059E-2,-1.1194432E-2,3.2742444E-2],"categories":[],"categories_nodes":[],"categories_segments":[],"categories_sizes":[],"default_left":[0,0,0,0,0],"id":103,"left_children":[1,3,-1,-1,-1],"loss_changes":[1.4635675E-2,2.1077175E-2,0E0,0E0,0E0],"parents":[2147483647,0,0,1,1],"right_children":[2,4,-1,-1,-1],"split_conditions":[4.9E0,5.6E0,-1.9502059E-2,-1.1194432E-2,3.2742444E-2],"split_indices":[2,0,0,0,0],"split_type":[0,0,0,0,0],"sum_hessian":[3.283466E0,2.1983638E0,1.0851023E0,1.1967547E0,1.0016092E0],"tree_param":{"num_deleted":"0","num_feature":"4","num_nodes":"5","size_leaf_vector":"1"}},{"base_weights":[4.799962E-3,-3.606002E-2,3.714931E-2],"categories":[],"categories_nodes":[],"categories_segments":[],"categories_sizes":[],"default_left":[0,0,0],"id":104,"left_children":[1,-1,-1],"loss_changes":[7.2720826E-2,0E0,0E0],"parents":[2147483647,0,0],"right_children":[2,-1,-1],"split_conditions":[6E0,-3.606002E-2,3.714931E-2],"split_indices":[0,0,0],"split_type":[0,0,0],"sum_hessian":[2.8871405E0,1.4034705E0,1.4836701E0],"tree_param":{"num_deleted":"0","num_feature":"4","num_nodes":"3","size_leaf_vector":"1"}},{"base_weights":[-6.5866173E-3],"categories":[],"categories_nodes":[],"categories_segments":[],"categories_sizes":[],"default_left":[0],"id":105,"left_children":[-1],"loss_changes":[0E0],"parents":[2147483647],"right_children":[-1],"split_conditions":[-1.9759852E-3],"split_indices":[0],"split_type":[0],"sum_hessian":[1.5415461E0],"tree_param":{"num_deleted":"0","num_feature":"4","num_nodes":"1","size_leaf_vector":"1"}},{"base_weights":[8.4633677E-4,-1.6591027E-2,1.569934E-2],"categories":[],"categories_nodes":[],"categories_segments":[],"categories_sizes":[],"default_left":[0,0,0],"id":106,"left_children":[1,-1,-1],"loss_changes":[1.5159148E-2,0E0,0E0],"parents":[2147483647,0,0],"right_children":[2,-1,-1],"split_conditions":[5.9E0,-1.6591027E-2,1.569934E-2],"split_indices":[0,0,0],"split_type":[0,0,0],"sum_hessian":[3.2427037E0,1.5156035E0,1.7271001E0],"tree_param":{"num_deleted":"0","num_feature":"4","num_nodes":"3","size_leaf_vector":"1"}},{"base_weights":[3.428451E-3,3.5301443E-2,-3.5688777E-2],"categories":[],"categories_nodes":[],"categories_segments":[],"categories_sizes":[],"default_left":[0,0,0],"id":107,"left_children":[1,-1,-1],"loss_changes":[6.762821E-2,0E0,0E0],"parents":[2147483647,0,0],"right_children":[2,-1,-1],"split_conditions":[3E0,3.5301443E-2,-3.5688777E-2],"split_indices":[1,0,0],"split_type":[0,0,0],"sum_hessian":[2.8355374E0,1.4865313E0,1.349006E0],"tree_param":{"num_deleted":"0","num_feature":"4","num_nodes":"3","size_leaf_vector":"1"}},{"base_weights":[-8.898278E-3],"categories":[],"categories_nodes":[],"categories_segments":[],"categories_sizes":[],"default_left":[0],"id":108,"left_children":[-1],"loss_changes":[0E0],"parents":[2147483647],"right_children":[-1],"split_conditions":[-2.6694834E-3],"split_indices":[0],"split_type":[0],"sum_hessian":[1.5295705E0],"tree_param":{"num_deleted":"0","num_feature":"4","num_nodes":"1","size_leaf_vector":"1"}},{"base_weights":[1.4481051E-3,4.2449586E-2,-1.7332604E-2,3.8062237E-2,-1.8600704E-2],"categories":[],"categories_nodes":[],"categories_segments":[],"categories_sizes":[],"default_left":[0,0,0,0,0],"id":109,"left_children":[1,3,-1,-1,-1],"loss_changes":[1.2731128E-2,3.500671E-2,0E0,0E0,0E0],"parents":[2147483647,0,0,1,1],"right_children":[2,4,-1,-1,-1],"split_conditions":[3.1E0,1.6E0,-1.7332604E-2,3.8062237E-2,-1.8600704E-2],"split_indices":[1,3,0,0,0],"split_type":[0,0,0,0,0],"sum_hessian":[3.2329214E0,2.0777128E0,1.1552086E0,1.0302973E0,1.0474155E0],"tree_param":{"num_deleted":"0","num_feature":"4","num_nodes":"5","size_leaf_vector":"1"}},{"base_weights":[4.276748E-3,-3.2444283E-2,3.780342E-2],"categories":[],"categories_nodes":[],"categories_segments":[],"categories_sizes":[],"default_left":[0,0,0],"id":110,"left_children":[1,-1,-1],"loss_changes":[6.6036284E-2,0E0,0E0],"parents":[2147483647,0,0],"right_children":[2,-1,-1],"split_conditions":[4.9E0,-3.2444283E-2,3.780342E-2],"split_indices":[2,0,0],"split_type":[0,0,0],"sum_hessian":[2.829365E0,1.5289559E0,1.3004092E0],"tree_param":{"num_deleted":"0","num_feature":"4","num_nodes":"3","size_leaf_vector":"1"}},{"base_weights":[-7.848043E-3],"categories":[],"categories_nodes":[],"categories_segments":[],"categories_sizes":[],"default_left":[0],"id":111,"left_children":[-1],"loss_changes":[0E0],"parents":[2147483647],"right_children":[-1],"split_conditions":[-2.354413E-3],"split_indices":[0],"split_type":[0],"sum_hessian":[1.5022105E0],"tree_param":{"num_deleted":"0","num_feature":"4","num_nodes":"1","size_leaf_vector":"1"}},{"base_weights":[1.0433057E-3,-1.5854863E-2,1.5036323E-2],"categories":[],"categories_nodes":[],"categories_segments":[],"categories_sizes":[],"default_left":[0,0,0],"id":112,"left_children":[1,-1,-1],"loss_changes":[1.3692582E-2,0E0,0E0],"parents":[2147483647,0,0],"right_children":[2,-1,-1],"split_conditions":[5.9E0,-1.5854863E-2,1.5036323E-2],"split_indices":[0,0,0],"split_type":[0,0,0],"sum_hessian":[3.1754074E0,1.4768305E0,1.698577E0],"tree_param":{"num_deleted":"0","num_feature":"4","num_nodes":"3","size_leaf_vector":"1"}},{"base_weights":[4.0529817E-3,3.5270914E-2,-3.3262484E-2],"categories":[],"categories_nodes":[],"categories_segments":[],"categories_sizes":[],"default_left":[0,0,0],"id":113,"left_children":[1,-1,-1],"loss_changes":[6.222989E-2,0E0,0E0],"parents":[2147483647,0,0],"right_children":[2,-1,-1],"split_conditions":[2.9E0,3.5270914E-2,-3.3262484E-2],"split_indices":[1,0,0],"split_type":[0,0,0],"sum_hessian":[2.7707684E0,1.382378E0,1.3883905E0],"tree_param":{"num_deleted":"0","num_feature":"4","num_nodes":"3","size_leaf_vector":"1"}},{"base_weights":[-1.002721E-2],"categories":[],"categories_nodes":[],"categories_segments":[],"categories_sizes":[],"default_left":[0],"id":114,"left_children":[-1],"loss_changes":[0E0],"parents":[2147483647],"right_children":[-1],"split_conditions":[-3.0081633E-3],"split_indices":[0],"split_type":[0],"sum_hessian":[1.4913869E0],"tree_param":{"num_deleted":"0","num_feature":"4","num_nodes":"1","size_leaf_vector":"1"}},{"base_weights":[1.4279304E-3,4.3663558E-2,-1.7862253E-2,3.7000913E-2,-1.6985068E-2],"categories":[],"categories_nodes":[],"categories_segments":[],"categories_sizes":[],"default_left":[0,0,0,0,0],"id":115,"left_children":[1,3,-1,-1,-1],"loss_changes":[1.3327858E-2,3.12563E-2,0E0,0E0,0E0],"parents":[2147483647,0,0,1,1],"right_children":[2,4,-1,-1,-1],"split_conditions":[3.1E0,1.6E0,-1.7862253E-2,3.7000913E-2,-1.6985068E-2],"split_indices":[1,3,0,0,0],"split_type":[0,0,0,0,0],"sum_hessian":[3.1661618E0,2.0381126E0,1.128049E0,1.0076336E0,1.0304792E0],"tree_param":{"num_deleted":"0","num_feature":"4","num_nodes":"5","size_leaf_vector":"1"}},{"base_weights":[5.054398E-3,-3.1059403E-2,3.8794056E-2],"categories":[],"categories_nodes":[],"categories_segments":[],"categories_sizes":[],"default_left":[0,0,0],"id":116,"left_children":[1,-1,-1],"loss_changes":[6.419182E-2,0E0,0E0],"parents":[2147483647,0,0],"right_children":[2,-1,-1],"split_conditions":[1.8E0,-3.1059403E-2,3.8794056E-2],"split_indices":[3,0,0],"split_type":[0,0,0],"sum_hessian":[2.7652633E0,1.5647198E0,1.2005435E0],"tree_param":{"num_deleted":"0","num_feature":"4","num_nodes":"3","size_leaf_vector":"1"}},{"base_weights":[-8.927081E-3],"categories":[],"categories_nodes":[],"categories_segments":[],"categories_sizes":[],"default_left":[0],"id":117,"left_children":[-1],"loss_changes":[0E0],"parents":[2147483647],"right_children":[-1],"split_conditions":[-2.6781242E-3],"split_indices":[0],"split_type":[0],"sum_hessian":[1.4651045E0],"tree_param":{"num_deleted":"0","num_feature":"4","num_nodes":"1","size_leaf_vector":"1"}},{"base_weights":[6.699112E-4,-1.5154819E-2,1.4153595E-2],"categories":[],"categories_nodes":[],"categories_segments":[],"categories_sizes":[],"default_left":[0,0,0],"id":118,"left_children":[1,-1,-1],"loss_changes":[1.217334E-2,0E0,0E0],"parents":[2147483647,0,0],"right_children":[2,-1,-1],"split_conditions":[5.9E0,-1.5154819E-2,1.4153595E-2],"split_indices":[0,0,0],"split_type":[0,0,0],"sum_hessian":[3.1124425E0,1.4406967E0,1.6717458E0],"tree_param":{"num_deleted":"0","num_feature":"4","num_nodes":"3","size_leaf_vector":"1"}},{"base_weights":[5.187742E-3,-3.3127174E-2,3.4208696E-2],"categories":[],"categories_nodes":[],"categories_segments":[],"categories_sizes":[],"default_left":[0,0,0],"id":119,"left_children":[1,-1,-1],"loss_changes":[5.9284627E-2,0E0,0E0],"parents":[2147483647,0,0],"right_children":[2,-1,-1],"split_conditions":[6E0,-3.3127174E-2,3.4208696E-2],"split_indices":[0,0,0],"split_type":[0,0,0],"sum_hessian":[2.710715E0,1.3074232E0,1.4032917E0],"tree_param":{"num_deleted":"0","num_feature":"4","num_nodes":"3","size_leaf_vector":"1"}},{"base_weights":[-1.01947505E-2],"categories":[],"categories_nodes":[],"categories_segments":[],"categories_sizes":[],"default_left":[0],"id":120,"left_children":[-1],"loss_changes":[0E0],"parents":[2147483647],"right_children":[-1],"split_conditions":[-3.0584254E-3],"split_indices":[0],"split_type":[0],"sum_hessian":[1.4477743E0],"tree_param":{"num_deleted":"0","num_feature":"4","num_nodes":"1","size_leaf_vector":"1"}},{"base_weights":[8.467067E-4,-1.5382053E-2,1.4489856E-2],"categories":[],"categories_nodes":[],"categories_segments":[],"categories_sizes":[],"default_left":[0,0,0],"id":121,"left_children":[1,-1,-1],"loss_changes":[1.2591651E-2,0E0,0E0],"parents":[2147483647,0,0],"right_children":[2,-1,-1],"split_conditions":[5.9E0,-1.5382053E-2,1.4489856E-2],"split_indices":[0,0,0],"split_type":[0,0,0],"sum_hessian":[3.0898259E0,1.4341257E0,1.6557003E0],"tree_param":{"num_deleted":"0","num_feature":"4","num_nodes":"3","size_leaf_vector":"1"}},{"base_weights":[5.8362563E-3,3.4038004E-2,-3.303767E-2],"categories":[],"categories_nodes":[],"categories_segments":[],"categories_sizes":[],"default_left":[0,0,0],"id":122,"left_children":[1,-1,-1],"loss_changes":[5.845481E-2,0E0,0E0],"parents":[2147483647,0,0],"right_children":[2,-1,-1],"split_conditions":[3E0,3.4038004E-2,-3.303767E-2],"split_indices":[1,0,0],"split_type":[0,0,0],"sum_hessian":[2.6826174E0,1.4025189E0,1.2800984E0],"tree_param":{"num_deleted":"0","num_feature":"4","num_nodes":"3","size_leaf_vector":"1"}},{"base_weights":[-1.1845046E-2],"categories":[],"categories_nodes":[],"categories_segments":[],"categories_sizes":[],"default_left":[0],"id":123,"left_children":[-1],"loss_changes":[0E0],"parents":[2147483647],"right_children":[-1],"split_conditions":[-3.553514E-3],"split_indices":[0],"split_type":[0],"sum_hessian":[1.4376584E0],"tree_param":{"num_deleted":"0","num_feature":"4","num_nodes":"1","size_leaf_vector":"1"}},{"base_weights":[1.3639554E-3,1.2651771E-2,-1.724164E-2],"categories":[],"categories_nodes":[],"categories_segments":[],"categories_sizes":[],"default_left":[0,0,0],"id":124,"left_children":[1,-1,-1],"loss_changes":[1.2222614E-2,0E0,0E0],"parents":[2147483647,0,0],"right_children":[2,-1,-1],"split_conditions":[3.1E0,1.2651771E-2,-1.724164E-2],"split_indices":[1,0,0],"split_type":[0,0,0],"sum_hessian":[3.0811286E0,1.9865086E0,1.0946199E0],"tree_param":{"num_deleted":"0","num_feature":"4","num_nodes":"3","size_leaf_vector":"1"}},{"base_weights":[6.3386415E-3,-3.0398209E-2,3.6052227E-2],"categories":[],"categories_nodes":[],"categories_segments":[],"categories_sizes":[],"default_left":[0,0,0],"id":125,"left_children":[1,-1,-1],"loss_changes":[5.72451E-2,0E0,0E0],"parents":[2147483647,0,0],"right_children":[2,-1,-1],"split_conditions":[4.9E0,-3.0398209E-2,3.6052227E-2],"split_indices":[2,0,0],"split_type":[0,0,0],"sum_hessian":[2.677172E0,1.4323388E0,1.244833E0],"tree_param":{"num_deleted":"0","num_feature":"4","num_nodes":"3","size_leaf_vector":"1"}},{"base_weights":[-1.17062535E-2],"categories":[],"categories_nodes":[],"categories_segments":[],"categories_sizes":[],"default_left":[0],"id":126,"left_children":[-1],"loss_changes":[0E0],"parents":[2147483647],"right_children":[-1],"split_conditions":[-3.511876E-3],"split_indices":[0],"split_type":[0],"sum_hessian":[1.416635E0],"tree_param":{"num_deleted":"0","num_feature":"4","num_nodes":"1","size_leaf_vector":"1"}},{"base_weights":[1.3956362E-4,-1.4317254E-2,1.3221316E-2],"categories":[],"categories_nodes":[],"categories_segments":[],"categories_sizes":[],"default_left":[0,0,0],"id":127,"left_children":[1,-1,-1],"loss_changes":[1.0619048E-2,0E0,0E0],"parents":[2147483647,0,0],"right_children":[2,-1,-1],"split_conditions":[5.9E0,-1.4317254E-2,1.3221316E-2],"split_indices":[0,0,0],"split_type":[0,0,0],"sum_hessian":[3.0498834E0,1.4183006E0,1.6315827E0],"tree_param":{"num_deleted":"0","num_feature":"4","num_nodes":"3","size_leaf_vector":"1"}},{"base_weights":[7.614353E-3,3.2858193E-2,-3.1091109E-2],"categories":[],"categories_nodes":[],"categories_segments":[],"categories_sizes":[],"default_left":[0,0,0],"id":128,"left_children":[1,-1,-1],"loss_changes":[5.2634228E-2,0E0,0E0],"parents":[2147483647,0,0],"right_children":[2,-1,-1],"split_conditions":[3E0,3.2858193E-2,-3.1091109E-2],"split_indices":[1,0,0],"split_type":[0,0,0],"sum_hessian":[2.6411452E0,1.3865131E0,1.2546322E0],"tree_param":{"num_deleted":"0","num_feature":"4","num_nodes":"3","size_leaf_vector":"1"}},{"base_weights":[-1.3020306E-2],"categories":[],"categories_nodes":[],"categories_segments":[],"categories_sizes":[],"default_left":[0],"id":129,"left_children":[-1],"loss_changes":[0E0],"parents":[2147483647],"right_children":[-1],"split_conditions":[-3.906092E-3],"split_indices":[0],"split_type":[0],"sum_hessian":[1.4075859E0],"tree_param":{"num_deleted":"0","num_feature":"4","num_nodes":"1","size_leaf_vector":"1"}},{"base_weights":[7.7509676E-4,1.2653149E-2,-1.7701471E-2],"categories":[],"categories_nodes":[],"categories_segments":[],"categories_sizes":[],"default_left":[0,0,0],"id":130,"left_children":[1,-1,-1],"loss_changes":[1.2493083E-2,0E0,0E0],"parents":[2147483647,0,0],"right_children":[2,-1,-1],"split_conditions":[3.1E0,1.2653149E-2,-1.7701471E-2],"split_indices":[1,0,0],"split_type":[0,0,0],"sum_hessian":[3.0421667E0,1.9713333E0,1.0708333E0],"tree_param":{"num_deleted":"0","num_feature":"4","num_nodes":"3","size_leaf_vector":"1"}},{"base_weights":[7.7587585E-3,-2.880718E-2,3.791422E-2],"categories":[],"categories_nodes":[],"categories_segments":[],"categories_sizes":[],"default_left":[0,0,0],"id":131,"left_children":[1,-1,-1],"loss_changes":[5.6903698E-2,0E0,0E0],"parents":[2147483647,0,0],"right_children":[2,-1,-1],"split_conditions":[1.8E0,-2.880718E-2,3.791422E-2],"split_indices":[3,0,0],"split_type":[0,0,0],"sum_hessian":[2.6364603E0,1.5077927E0,1.1286676E0],"tree_param":{"num_deleted":"0","num_feature":"4","num_nodes":"3","size_leaf_vector":"1"}},{"base_weights":[-1.2712221E-2],"categories":[],"categories_nodes":[],"categories_segments":[],"categories_sizes":[],"default_left":[0],"id":132,"left_children":[-1],"loss_changes":[0E0],"parents":[2147483647],"right_children":[-1],"split_conditions":[-3.8136663E-3],"split_indices":[0],"split_type":[0],"sum_hessian":[1.3868877E0],"tree_param":{"num_deleted":"0","num_feature":"4","num_nodes":"1","size_leaf_vector":"1"}},{"base_weights":[-7.4752996E-4,-1.3362092E-2,1.196623E-2],"categories":[],"categories_nodes":[],"categories_segments":[],"categories_sizes":[],"default_left":[0,0,0],"id":133,"left_children":[1,-1,-1],"loss_changes":[8.915898E-3,0E0,0E0],"parents":[2147483647,0,0],"right_children":[2,-1,-1],"split_conditions":[5.9E0,-1.3362092E-2,1.196623E-2],"split_indices":[0,0,0],"split_type":[0,0,0],"sum_hessian":[3.0119302E0,1.4033816E0,1.6085488E0],"tree_param":{"num_deleted":"0","num_feature":"4","num_nodes":"3","size_leaf_vector":"1"}},{"base_weights":[9.256936E-3,-3.0692302E-2,3.398217E-2],"categories":[],"categories_nodes":[],"categories_segments":[],"categories_sizes":[],"default_left":[0,0,0],"id":134,"left_children":[1,-1,-1],"loss_changes":[5.3387247E-2,0E0,0E0],"parents":[2147483647,0,0],"right_children":[2,-1,-1],"split_conditions":[6E0,-3.0692302E-2,3.398217E-2],"split_indices":[0,0,0],"split_type":[0,0,0],"sum_hessian":[2.6018834E0,1.2633237E0,1.3385597E0],"tree_param":{"num_deleted":"0","num_feature":"4","num_nodes":"3","size_leaf_vector":"1"}},{"base_weights":[-1.3372767E-2],"categories":[],"categories_nodes":[],"categories_segments":[],"categories_sizes":[],"default_left":[0],"id":135,"left_children":[-1],"loss_changes":[0E0],"parents":[2147483647],"right_children":[-1],"split_conditions":[-4.0118303E-3],"split_indices":[0],"split_type":[0],"sum_hessian":[1.3721235E0],"tree_param":{"num_deleted":"0","num_feature":"4","num_nodes":"1","size_leaf_vector":"1"}},{"base_weights":[-3.4364985E-4,-1.3697327E-2,1.250911E-2],"categories":[],"categories_nodes":[],"categories_segments":[],"categories_sizes":[],"default_left":[0,0,0],"id":136,"left_children":[1,-1,-1],"loss_changes":[9.507054E-3,0E0,0E0],"parents":[2147483647,0,0],"right_children":[2,-1,-1],"split_conditions":[5.9E0,-1.3697327E-2,1.250911E-2],"split_indices":[0,0,0],"split_type":[0,0,0],"sum_hessian":[2.9911382E0,1.3981193E0,1.5930189E0],"tree_param":{"num_deleted":"0","num_feature":"4","num_nodes":"3","size_leaf_vector":"1"}},{"base_weights":[9.255478E-3,3.296762E-2,-2.9062977E-2],"categories":[],"categories_nodes":[],"categories_segments":[],"categories_sizes":[],"default_left":[0,0,0],"id":137,"left_children":[1,-1,-1],"loss_changes":[4.8836008E-2,0E0,0E0],"parents":[2147483647,0,0],"right_children":[2,-1,-1],"split_conditions":[2.9E0,3.296762E-2,-2.9062977E-2],"split_indices":[1,0,0],"split_type":[0,0,0],"sum_hessian":[2.5755892E0,1.3038371E0,1.2717522E0],"tree_param":{"num_deleted":"0","num_feature":"4","num_nodes":"3","size_leaf_vector":"1"}},{"base_weights":[-1.4518965E-2],"categories":[],"categories_nodes":[],"categories_segments":[],"categories_sizes":[],"default_left":[0],"id":138,"left_children":[-1],"loss_changes":[0E0],"parents":[2147483647],"right_children":[-1],"split_conditions":[-4.3556895E-3],"split_indices":[0],"split_type":[0],"sum_hessian":[1.3638393E0],"tree_param":{"num_deleted":"0","num_feature":"4","num_nodes":"1","size_leaf_vector":"1"}},{"base_weights":[2.5673915E-4,1.18922135E-2,-1.6979085E-2],"categories":[],"categories_nodes":[],"categories_segments":[],"categories_sizes":[],"default_left":[0,0,0],"id":139,"left_children":[1,-1,-1],"loss_changes":[1.1163161E-2,0E0,0E0],"parents":[2147483647,0,0],"right_children":[2,-1,-1],"split_conditions":[3.1E0,1.18922135E-2,-1.6979085E-2],"split_indices":[1,0,0],"split_type":[0,0,0],"sum_hessian":[2.9835303E0,1.9414196E0,1.0421106E0],"tree_param":{"num_deleted":"0","num_feature":"4","num_nodes":"3","size_leaf_vector":"1"}},{"base_weights":[9.324723E-3,-2.8339857E-2,3.5490464E-2],"categories":[],"categories_nodes":[],"categories_segments":[],"categories_sizes":[],"default_left":[0,0,0],"id":140,"left_children":[1,-1,-1],"loss_changes":[5.156541E-2,0E0,0E0],"parents":[2147483647,0,0],"right_children":[2,-1,-1],"split_conditions":[4.9E0,-2.8339857E-2,3.5490464E-2],"split_indices":[2,0,0],"split_type":[0,0,0],"sum_hessian":[2.5709143E0,1.3849877E0,1.1859266E0],"tree_param":{"num_deleted":"0","num_feature":"4","num_nodes":"3","size_leaf_vector":"1"}},{"base_weights":[-1.4126803E-2],"categories":[],"categories_nodes":[],"categories_segments":[],"categories_sizes":[],"default_left":[0],"id":141,"left_children":[-1],"loss_changes":[0E0],"parents":[2147483647],"right_children":[-1],"split_conditions":[-4.238041E-3],"split_indices":[0],"split_type":[0],"sum_hessian":[1.3448788E0],"tree_param":{"num_deleted":"0","num_feature":"4","num_nodes":"1","size_leaf_vector":"1"}},{"base_weights":[-7.989612E-4,1.0771023E-2,-1.6054308E-2],"categories":[],"categories_nodes":[],"categories_segments":[],"categories_sizes":[],"default_left":[0,0,0],"id":142,"left_children":[1,-1,-1],"loss_changes":[9.572753E-3,0E0,0E0],"parents":[2147483647,0,0],"right_children":[2,-1,-1],"split_conditions":[3.1E0,1.0771023E-2,-1.6054308E-2],"split_indices":[1,0,0],"split_type":[0,0,0],"sum_hessian":[2.954664E0,1.9299103E0,1.0247536E0],"tree_param":{"num_deleted":"0","num_feature":"4","num_nodes":"3","size_leaf_vector":"1"}},{"base_weights":[1.0256131E-2,-2.5724312E-2,3.5909925E-2],"categories":[],"categories_nodes":[],"categories_segments":[],"categories_sizes":[],"default_left":[0,0,0],"id":143,"left_children":[1,-1,-1],"loss_changes":[4.7437374E-2,0E0,0E0],"parents":[2147483647,0,0],"right_children":[2,-1,-1],"split_conditions":[1.8E0,-2.5724312E-2,3.5909925E-2],"split_indices":[3,0,0],"split_type":[0,0,0],"sum_hessian":[2.5379627E0,1.4673326E0,1.0706301E0],"tree_param":{"num_deleted":"0","num_feature":"4","num_nodes":"3","size_leaf_vector":"1"}},{"base_weights":[-1.3664991E-2],"categories":[],"categories_nodes":[],"categories_segments":[],"categories_sizes":[],"default_left":[0],"id":144,"left_children":[-1],"loss_changes":[0E0],"parents":[2147483647],"right_children":[-1],"split_conditions":[-4.0994976E-3],"split_indices":[0],"split_type":[0],"sum_hessian":[1.3272506E0],"tree_param":{"num_deleted":"0","num_feature":"4","num_nodes":"1","size_leaf_vector":"1"}},{"base_weights":[-1.9987582E-3,-1.4171005E-2,1.2211392E-2],"categories":[],"categories_nodes":[],"categories_segments":[],"categories_sizes":[],"default_left":[0,0,0],"id":145,"left_children":[1,-1,-1],"loss_changes":[9.512661E-3,0E0,0E0],"parents":[2147483647,0,0],"right_children":[2,-1,-1],"split_conditions":[5.9E0,-1.4171005E-2,1.2211392E-2],"split_indices":[0,0,0],"split_type":[0,0,0],"sum_hessian":[2.928905E0,1.3706971E0,1.558208E0],"tree_param":{"num_deleted":"0","num_feature":"4","num_nodes":"3","size_leaf_vector":"1"}},{"base_weights":[1.1302869E-2,3.2868087E-2,-2.982976E-2],"categories":[],"categories_nodes":[],"categories_segments":[],"categories_sizes":[],"default_left":[0,0,0],"id":146,"left_children":[1,-1,-1],"loss_changes":[4.9068373E-2,0E0,0E0],"parents":[2147483647,0,0],"right_children":[2,-1,-1],"split_conditions":[3E0,3.2868087E-2,-2.982976E-2],"split_indices":[1,0,0],"split_type":[0,0,0],"sum_hessian":[2.5085022E0,1.3347594E0,1.1737429E0],"tree_param":{"num_deleted":"0","num_feature":"4","num_nodes":"3","size_leaf_vector":"1"}},{"base_weights":[-1.4683859E-2],"categories":[],"categories_nodes":[],"categories_segments":[],"categories_sizes":[],"default_left":[0],"id":147,"left_children":[-1],"loss_changes":[0E0],"parents":[2147483647],"right_children":[-1],"split_conditions":[-4.405158E-3],"split_indices":[0],"split_type":[0],"sum_hessian":[1.3191652E0],"tree_param":{"num_deleted":"0","num_feature":"4","num_nodes":"1","size_leaf_vector":"1"}},{"base_weights":[-9.988975E-4,1.4898502E-2,-1.2053616E-2],"categories":[],"categories_nodes":[],"categories_segments":[],"categories_sizes":[],"default_left":[0,0,0],"id":148,"left_children":[1,-1,-1],"loss_changes":[9.77751E-3,0E0,0E0],"parents":[2147483647,0,0],"right_children":[2,-1,-1],"split_conditions":[4.5E0,1.4898502E-2,-1.2053616E-2],"split_indices":[2,0,0],"split_type":[0,0,0],"sum_hessian":[2.92074E0,1.1570766E0,1.7636633E0],"tree_param":{"num_deleted":"0","num_feature":"4","num_nodes":"3","size_leaf_vector":"1"}},{"base_weights":[1.0838116E-2,-2.8888335E-2,3.3272307E-2],"categories":[],"categories_nodes":[],"categories_segments":[],"categories_sizes":[],"default_left":[0,0,0],"id":149,"left_children":[1,-1,-1],"loss_changes":[4.8238922E-2,0E0,0E0],"parents":[2147483647,0,0],"right_children":[2,-1,-1],"split_conditions":[6E0,-2.8888335E-2,3.3272307E-2],"split_indices":[0,0,0],"split_type":[0,0,0],"sum_hessian":[2.5034184E0,1.2272612E0,1.2761574E0],"tree_param":{"num_deleted":"0","num_feature":"4","num_nodes":"3","size_leaf_vector":"1"}},{"base_weights":[-1.1586923E-2],"categories":[],"categories_nodes":[],"categories_segments":[],"categories_sizes":[],"default_left":[0],"id":150,"left_children":[-1],"loss_changes":[0E0],"parents":[2147483647],"right_children":[-1],"split_conditions":[-3.476077E-3],"split_indices":[0],"split_type":[0],"sum_hessian":[1.3169427E0],"tree_param":{"num_deleted":"0","num_feature":"4","num_nodes":"1","size_leaf_vector":"1"}},{"base_weights":[-6.70466E-5,-1.3967029E-2,1.3051861E-2],"categories":[],"categories_nodes":[],"categories_segments":[],"categories_sizes":[],"default_left":[0,0,0],"id":151,"left_children":[1,-1,-1],"loss_changes":[9.918018E-3,0E0,0E0],"parents":[2147483647,0,0],"right_children":[2,-1,-1],"split_conditions":[5.9E0,-1.3967029E-2,1.3051861E-2],"split_indices":[0,0,0],"split_type":[0,0,0],"sum_hessian":[2.8961747E0,1.3680676E0,1.528107E0],"tree_param":{"num_deleted":"0","num_feature":"4","num_nodes":"3","size_leaf_vector":"1"}},{"base_weights":[7.824804E-3,3.1099685E-2,-2.8000511E-2],"categories":[],"categories_nodes":[],"categories_segments":[],"categories_sizes":[],"default_left":[0,0,0],"id":152,"left_children":[1,-1,-1],"loss_changes":[4.3260906E-2,0E0,0E0],"parents":[2147483647,0,0],"right_children":[2,-1,-1],"split_conditions":[2.9E0,3.1099685E-2,-2.8000511E-2],"split_indices":[1,0,0],"split_type":[0,0,0],"sum_hessian":[2.4640992E0,1.2525953E0,1.2115037E0],"tree_param":{"num_deleted":"0","num_feature":"4","num_nodes":"3","size_leaf_vector":"1"}},{"base_weights":[-1.2868615E-2],"categories":[],"categories_nodes":[],"categories_segments":[],"categories_sizes":[],"default_left":[0],"id":153,"left_children":[-1],"loss_changes":[0E0],"parents":[2147483647],"right_children":[-1],"split_conditions":[-3.8605847E-3],"split_indices":[0],"split_type":[0],"sum_hessian":[1.3092233E0],"tree_param":{"num_deleted":"0","num_feature":"4","num_nodes":"1","size_leaf_vector":"1"}},{"base_weights":[4.4298623E-4,1.1777796E-2,-1.6657012E-2],"categories":[],"categories_nodes":[],"categories_segments":[],"categories_sizes":[],"default_left":[0,0,0],"id":154,"left_children":[1,-1,-1],"loss_changes":[1.0627911E-2,0E0,0E0],"parents":[2147483647,0,0],"right_children":[2,-1,-1],"split_conditions":[3.1E0,1.1777796E-2,-1.6657012E-2],"split_indices":[1,0,0],"split_type":[0,0,0],"sum_hessian":[2.8888173E0,1.8820274E0,1.0067899E0],"tree_param":{"num_deleted":"0","num_feature":"4","num_nodes":"3","size_leaf_vector":"1"}},{"base_weights":[8.089878E-3,-2.6873609E-2,3.3506874E-2],"categories":[],"categories_nodes":[],"categories_segments":[],"categories_sizes":[],"default_left":[0,0,0],"id":155,"left_children":[1,-1,-1],"loss_changes":[4.501874E-2,0E0,0E0],"parents":[2147483647,0,0],"right_children":[2,-1,-1],"split_conditions":[4.9E0,-2.6873609E-2,3.3506874E-2],"split_indices":[2,0,0],"split_type":[0,0,0],"sum_hessian":[2.46039E0,1.3361107E0,1.1242795E0],"tree_param":{"num_deleted":"0","num_feature":"4","num_nodes":"3","size_leaf_vector":"1"}},{"base_weights":[-1.2662225E-2],"categories":[],"categories_nodes":[],"categories_segments":[],"categories_sizes":[],"default_left":[0],"id":156,"left_children":[-1],"loss_changes":[0E0],"parents":[2147483647],"right_children":[-1],"split_conditions":[-3.7986678E-3],"split_indices":[0],"split_type":[0],"sum_hessian":[1.2921867E0],"tree_param":{"num_deleted":"0","num_feature":"4","num_nodes":"1","size_leaf_vector":"1"}},{"base_weights":[-6.602355E-4,-1.3062214E-2,1.1965719E-2],"categories":[],"categories_nodes":[],"categories_segments":[],"categories_sizes":[],"default_left":[0,0,0],"id":157,"left_children":[1,-1,-1],"loss_changes":[8.4522385E-3,0E0,0E0],"parents":[2147483647,0,0],"right_children":[2,-1,-1],"split_conditions":[5.9E0,-1.3062214E-2,1.1965719E-2],"split_indices":[0,0,0],"split_type":[0,0,0],"sum_hessian":[2.862573E0,1.3553381E0,1.5072347E0],"tree_param":{"num_deleted":"0","num_feature":"4","num_nodes":"3","size_leaf_vector":"1"}},{"base_weights":[9.202002E-3,-2.4609428E-2,3.4290284E-2],"categories":[],"categories_nodes":[],"categories_segments":[],"categories_sizes":[],"default_left":[0,0,0],"id":158,"left_children":[1,-1,-1],"loss_changes":[4.2277172E-2,0E0,0E0],"parents":[2147483647,0,0],"right_children":[2,-1,-1],"split_conditions":[1.8E0,-2.4609428E-2,3.4290284E-2],"split_indices":[3,0,0],"split_type":[0,0,0],"sum_hessian":[2.431275E0,1.4189812E0,1.0122936E0],"tree_param":{"num_deleted":"0","num_feature":"4","num_nodes":"3","size_leaf_vector":"1"}},{"base_weights":[-1.2857823E-2],"categories":[],"categories_nodes":[],"categories_segments":[],"categories_sizes":[],"default_left":[0],"id":159,"left_children":[-1],"loss_changes":[0E0],"parents":[2147483647],"right_children":[-1],"split_conditions":[-3.857347E-3],"split_indices":[0],"split_type":[0],"sum_hessian":[1.2786027E0],"tree_param":{"num_deleted":"0","num_feature":"4","num_nodes":"1","size_leaf_vector":"1"}},{"base_weights":[-1.3888143E-3,-1.3027814E-2,1.1620615E-2],"categories":[],"categories_nodes":[],"categories_segments":[],"categories_sizes":[],"default_left":[0,0,0],"id":160,"left_children":[1,-1,-1],"loss_changes":[8.1663495E-3,0E0,0E0],"parents":[2147483647,0,0],"right_children":[2,-1,-1],"split_conditions":[5.9E0,-1.3027814E-2,1.1620615E-2],"split_indices":[0,0,0],"split_type":[0,0,0],"sum_hessian":[2.8443034E0,1.3488511E0,1.4954522E0],"tree_param":{"num_deleted":"0","num_feature":"4","num_nodes":"3","size_leaf_vector":"1"}},{"base_weights":[1.0161694E-2,3.0797513E-2,-2.695219E-2],"categories":[],"categories_nodes":[],"categories_segments":[],"categories_sizes":[],"default_left":[0,0,0],"id":161,"left_children":[1,-1,-1],"loss_changes":[4.074983E-2,0E0,0E0],"parents":[2147483647,0,0],"right_children":[2,-1,-1],"split_conditions":[2.9E0,3.0797513E-2,-2.695219E-2],"split_indices":[1,0,0],"split_type":[0,0,0],"sum_hessian":[2.4083607E0,1.2373343E0,1.1710263E0],"tree_param":{"num_deleted":"0","num_feature":"4","num_nodes":"3","size_leaf_vector":"1"}},{"base_weights":[-1.3856551E-2],"categories":[],"categories_nodes":[],"categories_segments":[],"categories_sizes":[],"default_left":[0],"id":162,"left_children":[-1],"loss_changes":[0E0],"parents":[2147483647],"right_children":[-1],"split_conditions":[-4.1569653E-3],"split_indices":[0],"split_type":[0],"sum_hessian":[1.2716414E0],"tree_param":{"num_deleted":"0","num_feature":"4","num_nodes":"1","size_leaf_vector":"1"}},{"base_weights":[-6.428782E-4,1.5071822E-2,-1.2228691E-2],"categories":[],"categories_nodes":[],"categories_segments":[],"categories_sizes":[],"default_left":[0,0,0],"id":163,"left_children":[1,-1,-1],"loss_changes":[9.8813055E-3,0E0,0E0],"parents":[2147483647,0,0],"right_children":[2,-1,-1],"split_conditions":[4.5E0,1.5071822E-2,-1.2228691E-2],"split_indices":[2,0,0],"split_type":[0,0,0],"sum_hessian":[2.8373444E0,1.1396778E0,1.6976665E0],"tree_param":{"num_deleted":"0","num_feature":"4","num_nodes":"3","size_leaf_vector":"1"}},{"base_weights":[9.97005E-3,-2.7575426E-2,3.182603E-2],"categories":[],"categories_nodes":[],"categories_segments":[],"categories_sizes":[],"default_left":[0,0,0],"id":164,"left_children":[1,-1,-1],"loss_changes":[4.3093216E-2,0E0,0E0],"parents":[2147483647,0,0],"right_children":[2,-1,-1],"split_conditions":[6E0,-2.7575426E-2,3.182603E-2],"split_indices":[0,0,0],"split_type":[0,0,0],"sum_hessian":[2.4046156E0,1.1884677E0,1.2161478E0],"tree_param":{"num_deleted":"0","num_feature":"4","num_nodes":"3","size_leaf_vector":"1"}},{"base_weights":[-1.08329225E-2],"categories":[],"categories_nodes":[],"categories_segments":[],"categories_sizes":[],"default_left":[0],"id":165,"left_children":[-1],"loss_changes":[0E0],"parents":[2147483647],"right_children":[-1],"split_conditions":[-3.249877E-3],"split_indices":[0],"split_type":[0],"sum_hessian":[1.2704879E0],"tree_param":{"num_deleted":"0","num_feature":"4","num_nodes":"1","size_leaf_vector":"1"}},{"base_weights":[1.6453747E-4,-1.2944829E-2,1.23835E-2],"categories":[],"categories_nodes":[],"categories_segments":[],"categories_sizes":[],"default_left":[0,0,0],"id":166,"left_children":[1,-1,-1],"loss_changes":[8.573531E-3,0E0,0E0],"parents":[2147483647,0,0],"right_children":[2,-1,-1],"split_conditions":[5.9E0,-1.2944829E-2,1.23835E-2],"split_indices":[0,0,0],"split_type":[0,0,0],"sum_hessian":[2.8142345E0,1.3463372E0,1.4678973E0],"tree_param":{"num_deleted":"0","num_feature":"4","num_nodes":"3","size_leaf_vector":"1"}},{"base_weights":[7.1172677E-3,-2.4565283E-2,3.0653948E-2],"categories":[],"categories_nodes":[],"categories_segments":[],"categories_sizes":[],"default_left":[0,0,0],"id":167,"left_children":[1,-1,-1],"loss_changes":[3.686168E-2,0E0,0E0],"parents":[2147483647,0,0],"right_children":[2,-1,-1],"split_conditions":[4.9E0,-2.4565283E-2,3.0653948E-2],"split_indices":[2,0,0],"split_type":[0,0,0],"sum_hessian":[2.3678908E0,1.2945275E0,1.0733634E0],"tree_param":{"num_deleted":"0","num_feature":"4","num_nodes":"3","size_leaf_vector":"1"}},{"base_weights":[-1.1325005E-2],"categories":[],"categories_nodes":[],"categories_segments":[],"categories_sizes":[],"default_left":[0],"id":168,"left_children":[-1],"loss_changes":[0E0],"parents":[2147483647],"right_children":[-1],"split_conditions":[-3.3975018E-3],"split_indices":[0],"split_type":[0],"sum_hessian":[1.2580152E0],"tree_param":{"num_deleted":"0","num_feature":"4","num_nodes":"1","size_leaf_vector":"1"}},{"base_weights":[-2.8402093E-4,-1.2904285E-2,1.2158315E-2],"categories":[],"categories_nodes":[],"categories_segments":[],"categories_sizes":[],"default_left":[0,0,0],"id":169,"left_children":[1,-1,-1],"loss_changes":[8.364727E-3,0E0,0E0],"parents":[2147483647,0,0],"right_children":[2,-1,-1],"split_conditions":[5.9E0,-1.2904285E-2,1.2158315E-2],"split_indices":[0,0,0],"split_type":[0,0,0],"sum_hessian":[2.7969327E0,1.3399862E0,1.4569465E0],"tree_param":{"num_deleted":"0","num_feature":"4","num_nodes":"3","size_leaf_vector":"1"}},{"base_weights":[7.96271E-3,2.8606717E-2,-2.699059E-2],"categories":[],"categories_nodes":[],"categories_segments":[],"categories_sizes":[],"default_left":[0,0,0],"id":170,"left_children":[1,-1,-1],"loss_changes":[3.722306E-2,0E0,0E0],"parents":[2147483647,0,0],"right_children":[2,-1,-1],"split_conditions":[3E0,2.8606717E-2,-2.699059E-2],"split_indices":[1,0,0],"split_type":[0,0,0],"sum_hessian":[2.3468466E0,1.254047E0,1.0927997E0],"tree_param":{"num_deleted":"0","num_feature":"4","num_nodes":"3","size_leaf_vector":"1"}},{"base_weights":[-1.2316329E-2],"categories":[],"categories_nodes":[],"categories_segments":[],"categories_sizes":[],"default_left":[0],"id":171,"left_children":[-1],"loss_changes":[0E0],"parents":[2147483647],"right_children":[-1],"split_conditions":[-3.694899E-3],"split_indices":[0],"split_type":[0],"sum_hessian":[1.2513272E0],"tree_param":{"num_deleted":"0","num_feature":"4","num_nodes":"1","size_leaf_vector":"1"}},{"base_weights":[3.4687857E-4,1.4598974E-2,-1.1570289E-2],"categories":[],"categories_nodes":[],"categories_segments":[],"categories_sizes":[],"default_left":[0,0,0],"id":172,"left_children":[1,-1,-1],"loss_changes":[9.003865E-3,0E0,0E0],"parents":[2147483647,0,0],"right_children":[2,-1,-1],"split_conditions":[4.5E0,1.4598974E-2,-1.1570289E-2],"split_indices":[2,0,0],"split_type":[0,0,0],"sum_hessian":[2.7905593E0,1.1331367E0,1.6574227E0],"tree_param":{"num_deleted":"0","num_feature":"4","num_nodes":"3","size_leaf_vector":"1"}},{"base_weights":[7.8988E-3,-2.5819384E-2,2.9105699E-2],"categories":[],"categories_nodes":[],"categories_segments":[],"categories_sizes":[],"default_left":[0,0,0],"id":173,"left_children":[1,-1,-1],"loss_changes":[3.6352046E-2,0E0,0E0],"parents":[2147483647,0,0],"right_children":[2,-1,-1],"split_conditions":[6E0,-2.5819384E-2,2.9105699E-2],"split_indices":[0,0,0],"split_type":[0,0,0],"sum_hessian":[2.3439238E0,1.1576489E0,1.1862749E0],"tree_param":{"num_deleted":"0","num_feature":"4","num_nodes":"3","size_leaf_vector":"1"}},{"base_weights":[-9.506606E-3],"categories":[],"categories_nodes":[],"categories_segments":[],"categories_sizes":[],"default_left":[0],"id":174,"left_children":[-1],"loss_changes":[0E0],"parents":[2147483647],"right_children":[-1],"split_conditions":[-2.8519817E-3],"split_indices":[0],"split_type":[0],"sum_hessian":[1.2509652E0],